\data\
ngram 1=2527
ngram 2=2274
ngram 3=1137
ngram 4=292
ngram 5=5

\1-grams:
-3.6756132	<unk>	0
0	<s>	-0.07330785
-1.2562115	</s>	0
-1.2192795	0	-3.3800964
-3.091136	In	-0.1954119
-1.7426568	the	-0.13370858
-3.270763	years	-0.24787493
-3.6754887	-5.384479	0
-3.2689867	most	-0.13601321
-2.0323865	of	-0.30040845
-1.8516378	and	-0.32256344
-3.6754887	-4.959633	0
-2.9438376	were	-0.12660193
-3.6114945	named	0
-3.141845	after	-0.28201723
-3.6754887	-5.1942024	0
-3.6754887	-5.302602	0
-3.011435	We	-0.17586322
-3.1663303	love	-0.17245142
-2.4239125	you	-0.28683993
-3.6101964	Mr.	0
-3.6754887	-4.931752	0
-2.796239	has	-0.2598288
-2.9715304	been	-0.0807796
-3.5600598	awesome	-0.22691004
-2.4543278	with	-0.39663184
-3.4782012	kids	-0.14382048
-3.5999484	holding	0
-3.237649	down	-0.30628547
-3.6754887	-5.2089863	0
-3.3400846	while	-0.1362131
-2.0288713	I	-0.50439024
-3.2584798	work	-0.14182001
-3.4937813	later	-0.16491616
-3.0974584	than	-0.14333698
-3.6754887	-5.5463924	0
-2.4502728	The	-0.094795495
-2.6210136	have	-0.27595294
-3.5825765	busy	-0.21806909
-3.4888523	together	-0.17428802
-3.4888523	playing	-0.19029826
-2.3656995	on	-0.39555666
-3.6754887	-5.197119	0
-2.0459957	in	-0.38343415
-2.8122466	his	-0.12731972
-3.6754887	-4.9333434	0
-2.6777155	from	-0.3511868
-3.6754887	-5.2532763	0
-3.6754887	-5.0602007	0
-3.046087	He	-0.18966535
-3.4424136	wanted	-0.24315313
-2.2850819	that	-0.35036984
-3.398072	game	-0.14545232
-2.7516575	so	-0.22530259
-3.4362912	bad	-0.12546758
-3.4209328	used	-0.25844702
-3.5874696	gift	0
-3.575339	card	-0.13641559
-3.581362	birthday	0
-2.7561693	he	-0.24252482
-3.4495182	money	-0.12188868
-1.8907515	to	-0.33933538
-2.9842243	get	-0.21597306
-2.4869373	it	-0.27295268
-3.2115157	never	-0.076427065
-3.6754887	-4.9804497	0
-3.0864537	into	-0.39144504
-3.3535128	thing	-0.19694999
-2.2430933	is	-0.32454026
-3.0362961	how	-0.26478466
-2.771681	we	-0.27613848
-3.0818212	know	-0.2637207
-3.2648706	made	-0.21098642
-3.1863773	him	-0.18333638
-3.6101964	count	0
-2.849734	all	-0.24667768
-3.1612294	make	-0.267229
-3.3414788	sure	-0.13235323
-2.9225693	had	-0.26512802
-3.6754887	-5.08661	0
-2.953445	It	-0.30683348
-2.4835348	was	-0.18506852
-3.1967587	very	-0.081944115
-3.608902	cute	0
-3.5078878	watch	-0.14901154
-2.8655446	when	-0.5105577
-3.5949137	realized	0
-3.6754887	-5.1220536	0
-3.1128542	also	-0.069037355
-3.3725882	does	-0.18779385
-2.0105028	a	-0.15633775
-3.085291	good	-0.091396086
-3.482044	job	-0.109114274
-3.6246939	letting	0
-3.6754887	-5.1473994	0
-3.3236954	feel	-0.1524995
-2.933892	like	-0.30204904
-3.0314822	she	-0.1677165
-3.6127965	too,	0
-2.7338932	by	-0.3382987
-2.9751196	her	-0.15274324
-2.8697655	out	-0.38223675
-3.6754887	-5.422105	0
-3.308549	She	-0.10077556
-3.603763	loves	0
-3.4585655	almost	-0.1268852
-2.6319134	as	-0.41864765
-3.1967587	much	-0.15834723
-3.5647042	him.	-0.20800258
-3.6754887	-5.205989	0
-3.0362961	i	-0.11582614
-3.225721	am	-0.083811335
-3.1305306	going	-0.28845093
-3.5375552	share	-0.08449917
-3.0236876	some	-0.1871012
-3.3318126	home	-0.15793036
-3.6754887	-4.908555	0
-3.6754887	-5.1027913	0
-2.5776687	my	-0.14475954
-3.6754887	-4.9840183	0
-3.3034022	these	-0.16625607
-3.5364602	amazing	-0.19737245
-3.4126294	away	-0.26497573
-3.4849489	ready	-0.46411395
-3.2533202	come	-0.22486468
-3.3571167	life	-0.09499273
-3.023352	our	-0.13673426
-3.586241	home.	-0.25891367
-3.5193024	With	0
-3.491803	season	-0.12631436
-3.2204053	right	-0.17855039
-3.2945392	around	-0.29850298
-3.6754887	-5.1422105	0
-2.8838956	up	-0.3791084
-3.4724998	fun	-0.10040769
-3.4319701	set	-0.15056549
-3.3666291	help	-0.08159632
-2.7621973	not	-0.14930072
-3.1305306	only	-0.111081325
-2.7960398	your	-0.12271614
-3.6167262	cards	0
-3.6754887	-4.947935	0
-2.630417	but	-0.36597258
-3.2289414	any	-0.18317693
-3.6754887	-5.0688267	0
-3.603763	brings	0
-3.48301	change	-0.12624218
-3.5705802	life.	-0.16247785
-3.6754887	-5.427046	0
-3.6246939	Black	0
-3.5089133	cut	-0.13106428
-3.1195035	them	-0.1766198
-3.6754887	-5.313942	0
-3.5693986	red	0
-3.6754887	-4.9716544	0
-3.1275342	new	-0.090716705
-3.6754887	-4.904061	0
-3.6754887	-5.349855	0
-3.0712008	which	-0.19205154
-3.6114945	double	0
-3.5874696	gives	0
-3.300216	2	-0.19109705
-3.6754887	-4.9786763	0
-3.0757208	You	-0.21206331
-2.8766534	can	-0.1603942
-3.1834562	see	-0.23704869
-3.4200952	use	-0.17769493
-3.6754887	-5.3668222	0
-2.6505682	this	-0.17680524
-3.6754887	-4.9430165	0
-3.6754887	-5.163348	0
-3.226256	Just	0
-2.916754	one	-0.21500854
-3.5777383	pass	0
-3.2803605	through	-0.31726292
-3.6154122	die	0
-3.5161595	using	-0.20788309
-3.6754887	-5.29155	0
-3.6754887	-5.25662	0
-3.6754887	-4.8836813	0
-3.2343633	need	-0.2957733
-2.9715304	do	-0.23234731
-3.028076	-	-0.1915358
-3.5999484	super	0
-3.6754887	-5.188427	0
-3.1271076	If	-0.32217282
-2.789527	an	-0.10689882
-3.6754887	-5.053842	0
-3.5949137	let's	0
-3.4947739	hear	-0.08483603
-3.5408576	it!	-0.20129067
-3.3190296	:)	-0.22553536
-3.6754887	-5.2499585	0
-3.475341	friends	-0.21040097
-3.6273828	similar	0
-2.8551683	they	-0.25385913
-3.6300883	treated	0
-3.5038104	often	-0.13551983
-3.6273828	not,	0
-3.398868	same	-0.019000262
-3.6273828	names	0
-3.3901904	keep	-0.09157676
-3.4052896	coming	-0.16997865
-3.515117	up.	-0.29504353
-3.5911756	About	0
-3.6754887	-5.4798174	0
-3.608902	mine	0
-3.5531852	step	0
-3.6246939	foot	0
-3.0553806	there	-0.3165779
-3.3463936	ever	-0.12025962
-3.4782012	again	-0.14627472
-3.112442	because	-0.40412402
-3.300216	it.	-0.21707636
-3.345688	How	0
-3.2834036	many	-0.18150197
-3.534278	others	-0.13665627
-3.5670452	telling	0
-3.5936642	keeping	0
-3.6754887	-5.230567	0
-3.6167262	Although	0
-3.6754887	-4.8710675	0
-3.5048263	cant	-0.06364771
-3.6220217	claim	0
-3.6754887	-5.11473	0
-3.6754887	-5.0580707	0
-3.179111	two	-0.14934005
-3.6754887	-4.9285865	0
-3.6754887	-4.8879685	0
-3.4549239	nothing	-0.14854236
-2.9010258	more	-0.23102956
-3.6754887	-5.1345415	0
-3.2809672	They	-0.11313955
-3.606325	complete	0
-3.6220217	lack	-0.19421414
-3.6754887	-5.4320436	0
-2.6287904	be	-0.10010144
-3.6754887	-5.3935843	0
-2.80104	or	-0.2409336
-3.4362912	makes	-0.23399195
-3.6754887	-5.3177886	0
-2.7270539	will	-0.2806457
-3.328412	look	-0.23067833
-3.4126294	pretty	-0.11515471
-2.2392693	for	-0.37343282
-3.6233559	Americans	0
-3.6101964	prices	0
-3.1626146	go	-0.18108593
-3.237649	way	-0.18049905
-3.6754887	-5.047575	0
-3.6438744	afford	0
-3.5353677	buy	-0.116505526
-3.1462765	could	-0.15639935
-3.4415336	far	-0.100324094
-3.6154122	loss	0
-3.6754887	-5.3711696	0
-3.1374583	A	-0.0907019
-3.447731	lot	-0.15041088
-3.0652466	people	-0.23706101
-3.6273828	blame	0
-3.6754887	-5.329538	0
-3.6754887	-5.0233736	0
-3.6754887	-5.354035	0
-3.6754887	-5.2274175	0
-2.9084322	would	-0.27579698
-3.6754887	-5.1553006	0
-3.6466851	rid	0
-3.046087	But	-0.15556431
-3.5058444	whether	-0.12796241
-3.5647042	wrong	-0.20185502
-3.3230257	here	-0.11937853
-3.6101964	pain	0
-3.1927745	got	-0.20589437
-3.6024878	serious	-0.3122437
-3.5801506	problems	0
-3.5589066	deal	-0.16367325
-2.5780296	are	-0.21934003
-3.6754887	-4.975151	0
-3.0648773	time	-0.2523386
-3.6754887	-5.031292	0
-3.608902	turning	0
-3.543073	within	0
-3.6024878	contact	0
-3.482044	own	-0.07024562
-3.6754887	-5.474242	0
-3.6754887	-5.1123157	0
-3.3257105	best	-0.06086364
-3.5999484	and,	0
-3.6754887	-5.243398	0
-3.5577562	yourself	0
-2.838188	about	-0.30063874
-3.5949137	whatever	0
-3.48301	you.	-0.16276665
-3.6754887	-5.182728	0
-3.6260362	creative	0
-3.5299463	time,	-0.1341315
-3.6754887	-4.991245	0
-3.6566677	kinds	0
-3.5193024	turn	-0.11538719
-3.6341784	medium	0
-3.6754887	-5.3255863	0
-3.6246939	image	0
-3.6287334	balance	0
-3.6141024	Those	0
-3.6754887	-5.139639	0
-3.6754887	-4.938153	0
-3.5924182	ideas	0
-3.5874696	speak	0
-3.6300883	world.	-0.08432082
-3.40691	To	-0.069685176
-3.2683964	those	-0.22423549
-3.4209328	making	-0.11853822
-3.6754887	-5.0273147	0
-3.2785447	say	-0.13973215
-3.487873	remember	-0.116505526
-3.5453	brought	0
-3.6754887	-5.049654	0
-3.606325	White	0
-3.5911756	challenge	0
-2.8749807	what	-0.33061886
-3.5961668	changes	0
-3.6754887	-5.0911717	0
-3.6754887	-5.191305	0
-3.498767	ask	-0.10759082
-3.6754887	-5.4473915	0
-3.575339	again.	-0.2059632
-3.491803	months	-0.10771656
-3.6754887	-5.362518	0
-3.6287334	sun	0
-3.5600598	too.	-0.23003149
-3.515117	needs	-0.19609307
-3.3571167	doing	-0.1175555
-3.3190296	Im	-0.14286023
-3.6114945	bringing	0
-3.5453	stuff	-0.17841992
-3.1344137	back	-0.2647421
-3.5543234	Will	0
-3.6754887	-5.007958	0
-3.227328	before	-0.22291958
-3.6754887	-5.1579666	0
-3.3956923	Not	0
-3.4159317	such	-0.3141641
-3.6206918	thing.	-0.20286532
-3.6260362	promise	0
-3.319693	That	-0.062732525
-3.3941133	went	-0.15329908
-3.6754887	-5.32167	0
-3.5887012	on.	-0.21081899
-3.5464177	large	-0.15928562
-3.4504144	No	0
-3.4706159	thank	-0.19288261
-3.1917841	want	-0.26699647
-3.5850163	strong	-0.257321
-3.6127965	dark	0
-3.0564656	no	-0.16270821
-3.0745864	And	-0.13879006
-3.6754887	-4.8851056	0
-3.4459515	Why	0
-3.6754887	-5.3755608	0
-3.6101964	mention	0
-3.619366	effect	0
-3.428544	night	-0.096246734
-3.6754887	-5.152651	0
-3.575339	issue	-0.11353296
-3.5899367	raised	0
-3.6754887	-5.0175285	0
-3.5299463	including	-0.29935798
-3.5850163	football	0
-3.2415142	should	-0.21310413
-3.6314473	subject	0
-3.5961668	planning	0
-3.642476	condition	0
-3.6754887	-4.9512453	0
-2.5213494	at	-0.38186747
-3.4362912	times	-0.1150793
-3.6383073	necessary	0
-3.6754887	-5.055951	0
-3.5120041	State	-0.15167223
-3.5321066	worth	-0.107580006
-3.1199224	over	-0.2977377
-3.581362	100	-0.26554444
-3.5825765	People	0
-3.6273828	things,	0
-3.6754887	-5.266807	0
-3.5027971	though	0
-3.5007772	support	-0.14412446
-3.6754887	-5.3982096	0
-3.2533202	being	-0.14440073
-3.6141024	rain	0
-3.3373098	long	-0.11650556
-3.6754887	-5.2772393	0
-3.6754887	-5.4028845	0
-3.6754887	-5.2599893	0
-3.6341784	nature	0
-3.5670452	course	0
-3.3644154	few	-0.10745255
-3.586241	closed	0
-3.5874696	meant	0
-2.8174376	who	-0.20394884
-3.4801183	knew	-0.06083976
-3.5486617	area	-0.14569256
-3.4513125	able	-0.31611583
-3.48108	seen	-0.104842514
-3.46874	5	-0.17328893
-3.5182524	6	-0.19737245
-3.5375552	friend	-0.09273881
-3.6273828	wedding	0
-3.3117971	--	-0.17787877
-3.4200952	end	-0.25762603
-3.6754887	-5.221186	0
-3.6754887	-5.0455055	0
-3.6754887	-5.1075273	0
-3.5974238	Id	0
-3.4450643	read	-0.107735895
-3.4226127	anything	-0.14118733
-3.6260362	Martin	0
-3.6314473	before,	0
-3.605042	although	0
-3.52887	favorite	-0.0995966
-3.4947739	story	-0.11783723
-3.5635386	parents	-0.12758432
-3.498767	small	-0.14164619
-3.5936642	town	-0.1283005
-3.5999484	whose	0
-3.6754887	-5.236935	0
-3.4947739	kind	-0.20359625
-3.5386531	heart	-0.08547846
-3.6754887	-4.9161506	0
-3.3373098	another	-0.17398423
-3.5936642	boy	-0.19421414
-3.5277965	car	-0.10537937
-3.6300883	train	0
-2.8099818	just	-0.14454865
-3.4678051	hit	-0.13048404
-3.5801506	killed	0
-3.6754887	-4.9562583	0
-3.6754887	-5.358256	0
-3.6754887	-5.177102	0
-3.6754887	-5.3799973	0
-3.3909721	give	-0.14533263
-3.6754887	-5.2952027	0
-3.6754887	-5.4526305	0
-3.5310252	group	-0.22239684
-3.2476583	next	-0.14328636
-3.6754887	-5.174316	0
-3.6754887	-4.954581	0
-3.6754887	-5.578671	0
-3.1022615	This	-0.19261213
-3.6754887	-5.4076104	0
-3.5765371	major	-0.2434737
-3.6754887	-5.337551	0
-3.6314473	thousands	0
-3.6754887	-4.8327494	0
-3.6754887	-5.218104	0
-3.6754887	-4.8766284	0
-3.5837946	ended	-0.19327678
-3.4772458	April	-0.109459154
-3.5464177	month	-0.07549703
-3.5078878	finally	-0.12670588
-3.556609	finished	-0.15574035
-2.944957	if	-0.4303068
-3.6012163	good,	0
-3.5961668	Ill	0
-3.6754887	-4.8508263	0
-3.2079074	still	-0.087012544
-3.5789428	feels	0
-3.619366	weird	0
-3.5182524	business	-0.14253445
-3.6314473	degree	0
-3.5058444	Ive	0
-3.425992	working	-0.20392174
-3.4406555	four	-0.14797698
-3.139646	So	-0.08598436
-3.1888266	now	-0.109283276
-3.5911756	process	0
-3.3725882	looking	-0.36685622
-3.6383073	job.	0
-3.5825765	began	0
-3.5612164	moving	0
-3.5464177	years,	-0.17820929
-3.52887	thats	0
-3.5464177	bit	-0.07532766
-3.3710907	As	0
-3.5161595	reading	-0.19525316
-3.1116188	last	-0.17912903
-3.4336934	week	-0.051850576
-3.5419638	gave	0
-2.8243864	me	-0.19144998
-3.5961668	opportunity	-0.16870329
-3.6754887	-4.8952093	0
-3.5577562	enjoy	-0.13138862
-3.6754887	-4.923881	0
-3.5109713	several	-0.16303413
-3.6754887	-5.1245227	0
-3.418425	happy	-0.18231384
-3.6127965	quality	0
-3.5554647	books	-0.20421638
-3.5801506	picked	-0.16362873
-3.6754887	-4.934941	0
-3.5486617	easy	-0.24801704
-3.6287334	loving	0
-3.1781511	even	-0.18846734
-3.4044816	took	-0.13047817
-3.6754887	-5.1660643	0
-3.1476147	first	-0.06851735
-3.6233559	novel	0
-3.066357	its	-0.13945748
-3.6754887	-5.389008	0
-3.6754887	-5.4370995	0
-3.544185	experience	-0.21348348
-3.6141024	later,	-0.19989714
-3.3733387	find	-0.1700342
-3.641082	mood	0
-3.641082	later.	0
-3.5974238	hoping	0
-3.6754887	-5.144797	0
-3.6754887	-4.914621	0
-3.52887	face	-0.13042101
-3.619366	cake	0
-3.6206918	sister	0
-3.6754887	-4.9100637	0
-3.5899367	seemed	0
-3.6314473	scared	0
-3.199771	us	-0.14033014
-3.4772458	started	-0.08842527
-3.6127965	An	0
-3.1898103	other	-0.0747522
-3.5936642	fine	0
-3.6754887	-5.341614	0
-3.200275	did	-0.22750588
-3.6754887	-5.2000556	0
-3.457652	world	-0.06942705
-3.5765371	save	0
-3.318367	When	-0.24132586
-3.5874696	age	-0.1864608
-3.5717652	mom	-0.08732448
-3.2115157	day	-0.17620195
-3.6754887	-5.1295033	0
-3.5277965	tried	-0.20866914
-3.2109983	My	-0.06581644
-3.5475383	phone	-0.076683834
-3.5245917	guy	-0.13481186
-3.2713566	every	-0.13006496
-3.5986843	door	0
-3.6383073	house.	0
-3.6369267	corner	0
-3.6314473	kitchen	0
-3.6754887	-5.0155973	0
-3.4522126	me.	-0.16948518
-3.3277352	since	-0.19538537
-3.6260362	havent	0
-3.5729532	changed	0
-3.6438744	mind.	0
-3.3681111	show	-0.11964368
-3.6167262	kid	0
-3.6754887	-5.212004	0
-3.482044	book	-0.10384299
-3.2689867	always	-0.087103195
-3.319693	better	-0.17355795
-3.5717652	inside	0
-3.6754887	-5.0041876	0
-3.426841	10	-0.11951107
-3.5038104	minutes	-0.13561402
-3.5717652	building	-0.14811677
-3.6754887	-4.9130964	0
-3.5299463	law	-0.10021632
-3.6167262	situation	0
-3.5612164	Or	0
-3.6754887	-4.9681854	0
-3.6233559	checking	0
-3.6754887	-4.936544	0
-3.6220217	reasons	0
-3.447731	believe	-0.15794839
-3.4762924	comes	-0.08855241
-3.5837946	certain	-0.17686136
-3.5520499	white	-0.27003932
-3.4302537	man	-0.120054565
-3.487873	goes	-0.081509896
-3.619366	killing	0
-3.6754887	-5.1799054	0
-3.185889	then	-0.09393573
-3.6287334	waste	0
-3.5509176	black	-0.22294384
-3.6076117	simple	-0.2769981
-3.5048263	stay	-0.10467116
-3.3793912	trying	-0.35240743
-3.6754887	-5.2337394	0
-3.6114945	all.	-0.100711286
-3.5267258	Come	0
-3.5874696	join	0
-3.5623758	Tuesday	0
-3.4531145	talk	-0.32979926
-3.5837946	personal	-0.23339322
-3.5705802	control	0
-3.6300883	ability	0
-3.5475383	true	-0.17495729
-3.6220217	ourselves	0
-3.6141024	travel	0
-3.4468403	free	-0.14353104
-3.5256574	meet	-0.09928867
-3.603763	people.	-0.29774603
-3.4782012	"The	-0.102582164
-3.6754887	-5.1270056	0
-3.5729532	earlier	0
-3.5658731	South	0
-3.6024878	High	0
-3.6141024	Court	0
-3.506865	leave	-0.12865324
-3.5554647	song	-0.14305767
-3.6754887	-5.287928	0
-3.6300883	crime	0
-3.5161595	weeks	-0.09462583
-3.4028704	everyone	-0.11356506
-3.6220217	particularly	0
-3.6754887	-5.4172196	0
-3.6754887	-5.0517426	0
-3.1824868	where	-0.2560114
-3.6076117	value	0
-3.5245917	company	-0.116303146
-3.6754887	-4.9397683	0
-3.304042	I've	-0.17976846
-3.539754	blog	-0.11123855
-3.6114945	type	-0.15082105
-3.605042	color	0
-3.5310252	seems	-0.17132746
-3.5986843	create	0
-3.6754887	-5.4579334	0
-2.8934948	I'm	-0.17519146
-3.6754887	-5.077627	0
-3.6754887	-5.1687975	0
-3.6754887	-5.0060687	0
-3.6101964	chicken	0
-3.3124497	little	-0.097452596
-3.6754887	-5.280773	0
-3.6233559	appeared	0
-3.6754887	-4.919226	0
-3.36589	New	-0.20747495
-3.6754887	-4.865577	0
-3.5911756	York	0
-3.6754887	-5.093471	0
-3.5299463	Today	0
-3.1972592	It's	-0.116163634
-3.6754887	-5.333526	0
-3.4175923	Its	-0.076857254
-3.4782012	real	-0.14462925
-3.6167262	onto	0
-3.5520499	feet	-0.17664215
-3.6754887	-4.98223	0
-3.208421	off	-0.34488365
-3.6754887	-5.033294	0
-3.6369267	that?	0
-3.5936642	manager	0
-3.543073	couldn't	0
-3.5949137	comment	0
-3.6754887	-4.868314	0
-3.5172048	city	-0.11559373
-3.3996656	might	-0.19811846
-3.5600598	light	-0.14415045
-3.6754887	-5.2843356	0
-3.6754887	-5.0214167	0
-3.6141024	doubt	0
-3.5612164	there.	-0.20696782
-3.5850163	Because	0
-3.6754887	-5.502863	0
-3.6754887	-5.203012	0
-3.6754887	-5.2702565	0
-3.432831	must	-0.17501694
-3.6341784	shape	0
-3.2932878	There	-0.26512426
-3.336619	may	-0.26868466
-3.4801183	point	-0.13498896
-3.5729532	himself	0
-3.5577562	simply	-0.2244703
-3.2151542	too	-0.17104408
-3.6754887	-4.8996124	0
-3.6754887	-4.964744	0
-3.556609	Well,	0
-3.6206918	clean	0
-3.5777383	space	0
-3.1530094	it's	-0.19105992
-3.605042	projects	0
-3.4772458	Have	-0.3561708
-3.5741446	wonderful	-0.15828387
-3.3695984	hope	-0.17864725
-3.5741446	project	-0.12502141
-3.6466851	soon!	0
-3.2387497	take	-0.19716237
-3.5235288	whole	-0.046184976
-3.5693986	body	-0.1302647
-3.5765371	offer	-0.16752337
-3.534278	members	-0.2726103
-3.6754887	-4.85881	0
-2.9380083	their	-0.14963014
-3.5924182	truly	-0.27414316
-3.6127965	serve	0
-3.6754887	-5.0798554	0
-3.6246939	Lord	0
-3.5911756	Jesus	0
-3.6754887	-5.029299	0
-3.6754887	-4.8808465	0
-3.4336934	everything	-0.15029062
-3.4513125	already	-0.1390412
-3.6012163	dog	0
-3.4424136	early	-0.1266719
-3.5729532	system	-0.23851024
-3.581362	allow	0
-3.6754887	-4.892298	0
-3.5986843	night.	-0.14021629
-3.6127965	cup	0
-3.6754887	-4.9630337	0
-3.5078878	heard	-0.10771656
-3.380154	someone	-0.17586145
-3.4977653	nice	-0.19876753
-3.3763545	tell	-0.23555367
-3.4791586	person	-0.100759014
-3.5214105	seeing	-0.17648084
-3.4585655	call	-0.120054565
-3.6180441	address	0
-3.6754887	-4.907052	0
-3.6754887	-4.9664617	0
-3.4468403	stop	-0.12611836
-3.6300883	seat	0
-3.5729532	certainly	-0.1814811
-3.6754887	-5.4123883	0
-3.6754887	-5.1500173	0
-3.556609	doesnt	0
-3.5109713	mean	-0.07862921
-3.6369267	else.	0
-3.6369267	terms	0
-3.26663	things	-0.20935377
-3.167732	think	-0.24899559
-3.6754887	-5.1606493	0
-3.619366	mix	0
-3.5299463	that.	-0.18047492
-3.6754887	-5.088885	0
-3.4242992	hard	-0.19527939
-2.968562	said	-0.35265636
-3.5120041	that,	-0.15669642
-3.5682204	wouldn't	0
-3.5419638	mind	-0.07549703
-3.4036753	having	-0.20162044
-3.6754887	-4.9949036	0
-3.5531852	added	0
-3.423455	3	-0.17225212
-3.409352	On	-0.1238116
-3.6273828	benefit	0
-3.5999484	band	0
-3.1839416	&	-0.22930221
-3.6754887	-4.889407	0
-3.6260362	Bill	0
-3.4126294	play	-0.1492303
-3.4200952	both	-0.12193135
-3.6754887	-4.9270124	0
-3.3964841	without	-0.2509457
-3.5899367	helped	0
-3.5635386	sounds	0
-3.5961668	songs	0
-3.5999484	one,	0
-3.6141024	title	0
-3.6754887	-5.2150435	0
-3.543073	number	-0.124271326
-3.6355503	presence	0
-3.606325	spot	0
-3.5874696	provide	0
-3.6300883	mothers	0
-3.6233559	helps	0
-3.6754887	-4.9858136	0
-3.6024878	relationship	0
-3.556609	gone	-0.15729126
-3.6754887	-5.066654	0
-3.5850163	More	0
-3.5741446	interesting	-0.18115255
-3.6754887	-4.946289	0
-3.6754887	-4.8937516	0
-3.6754887	-5.019468	0
-3.3124497	well	-0.1448046
-3.5717652	problem	-0.09763756
-3.5705802	sometimes	0
-3.5693986	Your	0
-3.6754887	-5.002315	0
-3.6314473	worried	0
-3.5899367	wasnt	0
-3.6024878	this.	-0.23764728
-3.6754887	-5.0098553	0
-3.6754887	-5.1051526	0
-3.6754887	-4.922324	0
-3.5936642	enjoyed	0
-3.544185	Even	0
-3.6754887	-4.8669434	0
-3.6369267	opinion	0
-3.6328106	prove	0
-3.6206918	popular	0
-3.6754887	-4.96133	0
-3.6754887	-5.109915	0
-3.1383321	really	-0.10185395
-3.5789428	youre	0
-3.6754887	-4.861504	0
-3.6754887	-5.520987	0
-3.6167262	impact	0
-3.606325	2011	0
-3.5554647	list	-0.214569
-3.6012163	include	0
-3.619366	star	0
-3.5961668	sat	0
-3.5235288	across	-0.27316296
-3.5475383	Well	0
-3.6233559	know.	-0.13784008
-3.421772	place	-0.19906653
-3.6754887	-4.9301662	0
-3.6754887	-5.442215	0
-3.6754887	-5.082095	0
-3.6754887	-5.463302	0
-3.506865	along	-0.10874839
-3.6154122	fear	0
-3.6754887	-5.485465	0
-3.474392	open	-0.10809871
-3.5789428	beer	-0.21145482
-3.5419638	class	-0.21167102
-3.6127965	tonight.	0
-3.501786	late	-0.12816142
-3.6012163	night,	0
-3.586241	bed	-0.086413845
-3.515117	time.	-0.15047471
-3.5058444	talking	-0.2447319
-3.368854	each	-0.26750883
-3.5623758	hour	-0.14716008
-3.5120041	half	-0.18072852
-3.490817	hours	-0.12433088
-3.581362	lives	0
-3.605042	tired	0
-3.586241	today,	0
-3.32909	why	-0.12979627
-3.5520499	now.	-0.19284666
-3.3832173	dont	-0.21830443
-3.3414788	getting	-0.13520232
-3.6754887	-5.306349	0
-3.6127965	spoke	0
-3.6012163	education	0
-3.6220217	development	0
-3.6024878	based	0
-3.52887	news	-0.14359683
-3.5589066	final	-0.102541775
-3.5375552	shows	-0.19546038
-3.4957685	lost	-0.12796241
-3.6754887	-5.246666	0
-3.6754887	-4.9699163	0
-3.6076117	evidence	0
-3.606325	seriously	0
-3.6754887	-5.00045	0
-3.5058444	you,	-0.14202072
-3.4354234	live	-0.17159416
-3.539754	worked	-0.12499365
-3.5717652	among	0
-3.5936642	life,	0
-3.3236954	until	-0.17936552
-3.6206918	wouldnt	0
-3.6220217	anywhere	0
-3.5497882	near	-0.18037005
-3.6127965	ill	0
-3.5464177	now,	-0.16943647
-3.5364602	short	-0.13171412
-3.5850163	wear	-0.21020062
-3.425145	found	-0.13071784
-3.4782012	myself	-0.1281345
-3.3964841	enough	-0.30226788
-3.6024878	wife	0
-3.6754887	-5.3101287	0
-3.5299463	living	-0.11877989
-3.4937813	room	-0.14396307
-3.48108	I'd	-0.090399735
-3.5837946	drink	0
-3.374844	big	-0.10195257
-3.6355503	Food	0
-3.6287334	term	0
-3.586241	this,	0
-3.454018	once	-0.103485025
-3.606325	couldnt	0
-3.6206918	pop	0
-3.5986843	lived	0
-3.6754887	-4.97691	0
-3.6127965	entire	0
-3.6154122	possibly	0
-3.6754887	-5.0117607	0
-3.5543234	recently	0
-3.6273828	restaurant	0
-3.5658731	usually	-0.18823445
-3.1414044	don't	-0.22992334
-3.5974238	trust	0
-3.5741446	one.	-0.24642189
-3.5058444	decided	-0.23132715
-3.5007772	check	-0.17098966
-3.5353677	John	-0.19943826
-3.556609	works	0
-3.5777383	good.	-0.2860659
-3.5801506	lunch	0
-3.6754887	-4.949587	0
-3.5589066	front	-0.11267703
-3.6024878	huge	-0.1477632
-3.6220217	glass	0
-3.6273828	window	0
-3.5949137	watched	0
-3.6220217	roll	0
-3.6154122	chocolate	0
-3.4167612	At	-0.13230498
-3.4380317	actually	-0.13901018
-3.514077	saw	-0.07782397
-3.6101964	considered	0
-3.606325	photo	0
-3.513039	taken	-0.0877631
-3.425145	done	-0.12321842
-3.6273828	her,	0
-3.533191	cool	-0.19918682
-3.543073	eat	-0.14769095
-3.5647042	single	-0.1338385
-3.515117	name	-0.08651983
-3.6754887	-5.298887	0
-3.6369267	copy	0
-3.6383073	Amazon	0
-3.5078878	today.	-0.25183564
-3.5577562	drive	-0.14722767
-3.5837946	cold	0
-3.5386531	day.	-0.17149086
-3.5777383	sad	-0.19590233
-3.5717652	Of	0
-3.5235288	saying	-0.15102483
-3.501786	music	-0.1950527
-3.5961668	above	0
-3.4450643	probably	-0.13064203
-3.6341784	familiar	0
-3.5543234	known	-0.11211986
-3.5647042	here.	-0.25184703
-3.5837946	difficult	0
-3.4142773	part	-0.23893073
-3.6754887	-4.9894266	0
-3.5172048	Oh	0
-3.5235288	Last	0
-3.3471003	year	-0.078776725
-3.6754887	-5.0957823	0
-3.6287334	weren't	0
-3.6754887	-4.8724513	0
-3.5623758	Get	0
-3.6260362	heads	0
-3.5974238	talked	0
-3.4640856	taking	-0.12371331
-3.469677	care	-0.14860488
-3.5999484	son	0
-3.6167262	placed	0
-3.5850163	death	0
-3.6754887	-4.8966722	0
-3.5623758	hand	-0.081429265
-3.3463936	didn't	-0.14492749
-3.3847573	let	-0.25278315
-3.619366	parking	0
-3.6754887	-5.062341	0
-3.374844	today	-0.18296035
-3.6154122	failed	0
-3.6754887	-5.4687376	0
-3.5224683	Day	-0.14810029
-3.6754887	-4.8696885	0
-3.5741446	year.	-0.09129203
-3.6180441	holiday	0
-3.5825765	written	0
-3.5961668	These	0
-3.6154122	struck	0
-3.6127965	agreed	0
-3.5936642	became	0
-3.6754887	-4.9967446	0
-3.539754	write	-0.093275726
-3.6754887	-5.496986	0
-3.642476	improve	0
-3.4898336	called	-0.1866644
-3.6754887	-4.9529095	0
-3.608902	sex	0
-3.6754887	-4.860155	0
-3.5623758	perfect	-0.11764919
-3.6383073	example,	0
-3.6114945	design	0
-3.543073	beautiful	-0.16108114
-3.6206918	designed	0
-3.6114945	period	0
-3.439779	May	-0.094351195
-3.5741446	2012	-0.20226596
-3.6167262	customers	0
-3.6754887	-4.905554	0
-3.410169	1	-0.14779174
-3.5936642	fresh	0
-3.5961668	Never	0
-3.5310252	Did	-0.27784517
-3.5789428	Yes,	0
-3.2538905	said.	-0.19215997
-3.5464177	Maybe	0
-3.5277965	special	-0.17816246
-3.515117	maybe	-0.10991856
-3.5408576	loved	-0.14268748
-3.6396925	much.	0
-3.6754887	-5.4911876	0
-3.581362	opened	0
-3.513039	City	-0.12830932
-3.5887012	25	0
-3.6167262	receive	0
-3.5729532	eight	-0.22882329
-3.491803	quite	-0.18094969
-3.6141024	church	0
-3.5419638	Sunday	0
-3.6260362	morning.	0
-3.6154122	mad	0
-3.513039	out.	-0.28552285
-3.5936642	page	0
-3.6260362	economy	0
-3.5837946	recent	-0.14125054
-3.6328106	months,	0
-3.581362	record	-0.15535322
-3.388631	came	-0.19039488
-3.6754887	-4.9207726	0
-3.410169	start	-0.101041585
-3.6300883	wanting	0
-3.6754887	-5.224291	0
-3.4522126	family	-0.15165561
-3.6141024	drove	0
-3.6754887	-4.90109	0
-3.556609	up,	-0.34188512
-3.606325	headed	0
-3.5911756	pulled	0
-3.5874696	finish	0
-3.4134526	between	-0.36985004
-3.5986843	green	0
-3.5623758	social	0
-3.6754887	-4.9176855	0
-3.5887012	due	0
-3.432831	All	0
-3.423455	Now	0
-3.6206918	product	0
-3.5235288	water	-0.14520003
-3.457652	After	0
-3.6114945	minutes.	-0.20039919
-3.5364602	takes	0
-3.606325	effort	0
-3.5172048	bring	-0.09797004
-3.5475383	power	0
-3.543073	stand	-0.12387557
-3.5949137	amount	-0.18905623
-3.425145	high	-0.17359556
-3.5161595	points	-0.14633806
-3.6754887	-5.171548	0
-3.5600598	While	0
-3.6754887	-4.8561325	0
-3.5874696	force	0
-3.5589066	moved	0
-3.6180441	kick	0
-3.6754887	-4.9446497	0
-3.5986843	position	0
-3.6024878	lower	0
-3.6754887	-5.345715	0
-3.5321066	turned	0
-3.6754887	-5.1171575	0
-3.6754887	-4.8534713	0
-3.5936642	training	0
-3.642476	addition	0
-3.6369267	book.	0
-3.5974238	mentioned	0
-3.6114945	characters	0
-3.6076117	voice	0
-3.6206918	enjoying	0
-3.4302537	it,	-0.16318864
-3.6328106	story.	0
-3.5277965	case	-0.07806244
-3.5375552	hot	-0.18185174
-3.4432955	second	-0.062200684
-3.5419638	third	-0.076016694
-3.5999484	wont	0
-3.5277965	understand	-0.14370327
-3.6167262	Which	0
-3.6754887	-4.9985933	0
-3.6754887	-5.533504	0
-3.4567409	wait	-0.3643642
-3.6314473	info	0
-3.5899367	"If	0
-3.199771	What	-0.17286131
-3.6754887	-4.89814	0
-3.6260362	broken	0
-3.6314473	creating	0
-3.5986843	wearing	0
-3.5717652	dinner	0
-3.4937813	said,	-0.07809717
-3.6341784	case,	0
-3.5825765	cover	0
-3.6369267	book,	0
-3.5765371	paper	-0.19172603
-3.4036753	against	-0.41808352
-3.6383073	smell	0
-3.2465346	something	-0.20403442
-3.514077	20	-0.14425763
-3.5986843	people,	0
-3.6754887	-4.8495097	0
-3.5670452	them,	0
-3.4495182	God	-0.1030796
-3.5899367	pictures	0
-3.6754887	-5.185568	0
-3.556609	happened	-0.22887814
-3.5235288	women	-0.19773696
-3.5729532	allowed	0
-3.5577562	especially	0
-3.5048263	feeling	-0.16300605
-3.6754887	-5.5840197	0
-3.6233559	style	0
-3.6754887	-5.5272	0
-3.6754887	-5.041397	0
-3.3311305	three	-0.11230376
-3.6452775	end.	0
-3.605042	involved	-0.1432987
-3.5705802	kept	0
-3.5961668	main	0
-3.4549239	different	-0.1571153
-3.5974238	Once	0
-3.5936642	round	0
-3.5386531	writing	-0.21126558
-3.5635386	learned	0
-3.6754887	-5.263385	0
-3.5986843	do.	-0.13280028
-3.5364602	waiting	-0.15852256
-3.5531852	send	-0.109089985
-3.6141024	discovered	0
-3.539754	add	-0.12401911
-3.6754887	-4.957942	0
-3.5310252	pick	-0.24565859
-3.6273828	cream	0
-3.606325	dream	0
-3.4957685	,	-0.14069007
-3.6328106	go.	-0.19063827
-3.5850163	themselves	0
-3.619366	lovely	-0.36911356
-3.6127965	touch	0
-3.6754887	-5.064492	0
-3.6383073	pan	0
-3.4495182	run	-0.13142863
-3.605042	warm	0
-3.6114945	father	0
-3.6233559	"They	0
-3.354231	you're	-0.088017054
-3.423455	during	-0.40252256
-3.6328106	range	0
-3.6328106	Council	0
-3.641082	manage	0
-3.6341784	council	0
-3.5986843	instead	0
-3.5658731	order	-0.1385078
-3.6754887	-5.07101	0
-3.575339	crazy	-0.29321587
-3.4937813	thinking	-0.23254924
-3.5623758	country	-0.108611375
-3.6246939	becoming	0
-3.5789428	ways	0
-3.5777383	possible	-0.14961067
-3.4678051	least	-0.013899966
-3.6396925	so.	0
-3.6314473	require	0
-3.5899367	economic	0
-3.5777383	well,	0
-3.606325	course,	0
-3.6287334	world,	0
-3.619366	Brown	0
-3.5224683	former	-0.11579027
-3.5789428	film	0
-3.6246939	inspired	0
-3.5837946	work.	-0.22158542
-3.6180441	goals	0
-3.6355503	wall	0
-3.6754887	-5.1195984	0
-3.6754887	-5.039357	0
-3.5765371	figure	-0.17092235
-3.5717652	wonder	-0.080941126
-3.5899367	back.	-0.2410773
-3.6438744	point,	0
-3.6260362	attempt	0
-3.5874696	stories	0
-3.6369267	month,	0
-3.5765371	lose	-0.117843896
-3.5887012	throw	0
-3.6355503	with.	0
-3.6180441	SO	0
-3.6220217	shop	0
-3.6466851	grand	0
-3.619366	total	0
-3.5089133	important	-0.18977793
-3.5717652	baby	-0.17909107
-3.5277965	tomorrow	-0.2099382
-3.603763	week,	0
-3.6141024	though,	0
-3.586241	hell	-0.07597198
-3.5475383	couple	-0.14397486
-3.5214105	yet	0
-3.6754887	-4.941389	0
-3.6466851	weeks,	0
-3.5874696	wrote	0
-3.6127965	Back	0
-3.5765371	ya	-0.31553584
-3.5172048	Then	0
-3.6206918	season,	0
-3.6341784	host	0
-3.6754887	-4.9876165	0
-3.5924182	fight	0
-3.608902	back,	0
-3.5924182	him,	0
-3.5658731	YOU	-0.1438797
-3.6754887	-4.8628573	0
-3.5874696	TO	-0.28637764
-3.603763	LOVE	0
-3.606325	away.	-0.3592652
-3.603763	drop	0
-3.556609	movie	-0.1215726
-3.4468403	4	-0.21471667
-3.5453	Here	0
-3.6114945	movies	0
-3.4603977	past	-0.103758566
-3.6754887	-4.902573	0
-3.5078878	running	-0.1555332
-3.3878536	school	-0.117115
-3.3513649	put	-0.13404165
-3.5789428	caught	0
-3.5789428	well.	-0.16890134
-3.6220217	hopes	0
-3.5999484	her.	0
-3.6452775	Birthday	0
-3.4319701	doesn't	-0.06036874
-3.6233559	planned	0
-3.6300883	out!	-0.26767373
-3.6206918	required	0
-3.5408576	officials	-0.22289574
-3.6233559	sports	0
-3.6754887	-5.0434465	0
-3.5408576	giving	-0.168301
-3.6180441	sort	-0.20111397
-3.5717652	player	-0.19526936
-3.6260362	lay	0
-3.5837946	low	0
-3.3941133	thought	-0.14763708
-3.605042	beginning	-0.07066945
-3.5789428	sales	0
-3.6180441	numbers	0
-3.6180441	war	0
-3.5887012	School	0
-3.6341784	pleased	0
-3.5974238	surprised	0
-3.5386531	local	-0.18026254
-3.6383073	opposite	0
-3.6076117	however,	0
-3.5038104	post	-0.11851461
-3.5974238	fire	0
-3.6300883	bright	0
-3.5887012	40	0
-3.6287334	signs	0
-3.6260362	morning,	0
-3.6328106	desire	0
-3.6024878	alone	0
-3.6246939	teaching	0
-3.6246939	continued	0
-3.544185	spend	-0.062022477
-3.6328106	pray	0
-3.6260362	Christ	0
-3.3839867	told	-0.15574494
-3.543073	needed	-0.25396255
-3.6206918	worry	0
-3.6154122	blue	0
-3.6328106	hand,	0
-3.556609	rest	-0.17956457
-3.608902	From	0
-3.6754887	-5.084347	0
-3.492791	Great	0
-3.2099657	great	-0.10918686
-3.5777383	trip	0
-3.5936642	photos	0
-3.6206918	quick	0
-3.6369267	500	0
-3.5949137	race	0
-3.6754887	-5.2401543	0
-3.5554647	break	-0.14566758
-3.603763	Thats	0
-3.48108	food	-0.1797375
-3.6300883	direction	0
-3.5486617	knows	-0.11054379
-3.5949137	stuck	0
-3.6141024	Texas	0
-3.6369267	soon.	0
-3.5837946	price	0
-3.5224683	become	-0.10443836
-3.6383073	responsible	0
-3.6076117	costs	0
-3.6314473	oven	0
-3.6754887	-5.0732045	0
-3.6754887	-4.87803	0
-3.6260362	cheese	0
-3.5375552	given	-0.08164827
-3.641082	avoid	0
-3.5777383	hair	-0.15126766
-3.6024878	home,	0
-3.6260362	limited	0
-3.6369267	de	0
-3.6180441	managed	0
-3.5874696	opening	0
-3.5193024	gets	-0.13772827
-3.6012163	theres	0
-3.6180441	access	0
-3.5974238	fast	0
-3.6260362	pressure	0
-3.6273828	speed	0
-3.515117	house	-0.11102971
-3.5949137	all,	0
-3.5486617	exactly	-0.14199412
-3.5670452	fell	0
-3.515117	young	-0.13594164
-3.6754887	-5.132015	0
-3.544185	guess	0
-3.6754887	-4.8642154	0
-3.6754887	-4.99307	0
-3.6012163	message	0
-3.6452775	edge	0
-3.5554647	sense	-0.14524037
-3.5850163	learning	0
-3.5825765	human	-0.19513689
-3.48108	asked	-0.07174603
-3.581362	role	0
-3.5658731	putting	0
-3.4715567	less	-0.35301268
-3.6246939	street	0
-3.5837946	eyes	0
-3.6180441	previous	0
-3.586241	know,	-0.10376251
-3.606325	completely	0
-3.6754887	-5.098106	0
-3.6754887	-5.1370826	0
-3.5635386	word	-0.13325877
-3.498767	spent	-0.09177814
-3.641082	point.	0
-3.6154122	returned	0
-3.5161595	looked	0
-3.6328106	team.	0
-3.533191	glad	-0.18479604
-3.6260362	is.	0
-3.6328106	US	0
-3.6233559	do,	0
-3.5554647	either	-0.20863335
-3.5705802	died	0
-3.5682204	walking	0
-3.6246939	article	0
-3.603763	"He	0
-3.6287334	included	0
-3.6246939	Home	0
-3.6220217	easily	0
-3.605042	(and	0
-3.5203552	them.	-0.18392715
-3.6154122	husband	0
-3.513039	wasn't	-0.06417454
-3.6180441	figured	0
-3.5911756	places	0
-3.534278	party	-0.19918682
-3.6076117	James	0
-3.6076117	on,	0
-3.5974238	listen	-0.26602504
-3.6127965	dance	0
-3.6180441	form	0
-3.6127965	charges	0
-3.474392	police	-0.11585097
-3.6220217	charge	0
-3.4200952	try	-0.28061554
-3.6260362	officer	0
-3.6341784	Union	0
-3.6154122	officers	0
-3.5635386	sitting	-0.15798616
-3.606325	ground	0
-3.4898336	close	-0.20151636
-3.619366	Federal	0
-3.6154122	arrested	0
-3.6206918	steps	0
-3.6167262	version	0
-3.5837946	West	0
-3.5729532	Anyone	0
-3.6369267	Wall	0
-3.5007772	Who	0
-3.4782012	Do	-0.26882443
-3.6754887	-5.273734	0
-3.5299463	chance	-0.15091811
-3.6314473	family,	0
-3.6220217	done.	0
-3.5693986	9	0
-3.6754887	-5.037327	0
-3.608902	hanging	0
-3.6260362	filled	0
-3.6754887	-5.0353055	0
-3.5375552	starting	-0.10909341
-3.4957685	me,	-0.12568341
-3.5453	His	0
-3.6220217	school,	0
-3.5911756	signed	0
-3.5277965	University	-0.30997765
-3.5453	according	-0.5352718
-3.6754887	-4.8865347	0
-3.6180441	described	0
-3.5999484	media	-0.16505589
-3.4371605	under	-0.328932
-3.5554647	federal	-0.083081804
-3.5299463	year,	-0.07654842
-3.5936642	track	0
-3.6754887	-4.925444	0
-3.5837946	Park	-0.35661265
-3.5949137	field	0
-3.4650126	five	-0.14738514
-3.6180441	floor	0
-3.556609	out,	-0.32179803
-3.5850163	energy	0
-3.6180441	industry	0
-3.6452775	say.	0
-3.5936642	Only	0
-3.534278	15	-0.1936358
-3.3763545	percent	-0.2919292
-3.4441788	U.S.	-0.056891814
-3.491803	pay	-0.17776053
-3.5682204	service	-0.22910778
-3.5949137	rate	0
-3.5986843	TV	0
-3.5874696	Our	0
-3.6754887	-5.0754104	0
-3.586241	interest	0
-3.4319701	One	-0.13620761
-3.6076117	taught	0
-3.4549239	That's	0
-3.5837946	aren't	0
-3.5850163	hands	0
-3.4947739	he's	-0.1341315
-3.6076117	dead	0
-3.5182524	side	-0.20095025
-3.5899367	beat	0
-3.6300883	cancer	0
-3.6314473	admit	0
-3.5364602	reason	-0.08079909
-3.6754887	-5.0253396	0
-3.5837946	way,	-0.17929634
-3.5408576	they're	-0.17662828
-3.5911756	research	0
-3.6355503	largest	0
-3.5961668	us.	-0.16906907
-3.6355503	option	0
-3.5899367	stopped	0
-3.603763	road	0
-3.6012163	week.	-0.11166077
-3.5850163	fit	0
-3.606325	right.	-0.3115343
-3.6141024	areas	0
-3.490817	behind	-0.21676923
-3.5999484	Every	0
-3.6754887	-4.973399	0
-3.608902	filed	0
-3.6260362	criminal	0
-3.5589066	board	0
-3.6167262	risk	0
-3.6180441	born	0
-3.52887	wants	-0.23271413
-3.5729532	sign	0
-3.6438744	nation	0
-3.6206918	setting	0
-3.5214105	morning	-0.09625543
-3.6076117	wake	-0.19578087
-3.5887012	ran	0
-3.6127965	NOT	0
-3.4967659	move	-0.08292715
-3.5765371	hurt	-0.28748736
-3.6341784	over.	0
-3.5949137	view	0
-3.6154122	everybody	0
-3.5509176	matter	-0.058834933
-3.6300883	path	0
-3.3763545	follow	-0.15240559
-3.6101964	Many	0
-3.606325	beyond	0
-3.6024878	liked	0
-3.6300883	attack	0
-3.6167262	leaves	0
-3.6328106	faith	0
-3.5058444	didnt	-0.07715842
-3.6246939	stayed	0
-3.5986843	supposed	-0.30326793
-3.534278	walk	-0.124043286
-3.6233559	okay	0
-3.328412	For	-0.052501522
-3.6328106	entered	0
-3.6220217	fill	0
-3.5837946	longer	-0.08221774
-3.6552274	bed.	0
-3.608902	choose	0
-3.6260362	1.	0
-3.6180441	size	0
-3.4888523	says	-0.12115045
-3.5419638	men	-0.20829128
-3.5825765	piece	-0.18072852
-3.6328106	apply	0
-3.575339	Be	0
-3.6180441	poor	0
-3.4504144	old	-0.14969696
-3.6300883	impossible	0
-3.6141024	review	0
-3.6273828	believed	0
-3.5299463	soon	-0.25396255
-3.5924182	market	0
-3.5765371	interested	-0.21620847
-3.6101964	worse	0
-3.6076117	none	0
-3.619366	appear	0
-3.6024878	common	0
-3.5717652	attention	-0.13141073
-3.5577562	fact	-0.14681983
-3.603763	Since	0
-3.606325	increase	0
-3.6260362	lady	0
-3.6024878	member	-0.109062426
-3.6754887	-5.0136747	0
-3.506865	felt	-0.08799524
-3.6396925	did.	0
-3.6127965	Michael	0
-3.5554647	hold	-0.12387557
-3.5235288	idea	-0.10647522
-3.3263843	can't	-0.08684675
-3.5924182	way.	-0.16870329
-3.6314473	snow	0
-3.3933258	left	-0.13146314
-3.608902	residents	0
-3.6167262	things.	0
-3.6220217	highly	0
-3.6180441	married	0
-3.4522126	Don't	0
-3.5310252	National	0
-3.6206918	Hall	0
-3.5887012	followed	0
-3.5267258	San	0
-3.649514	Francisco	0
-3.5911756	Center	-0.21620843
-3.6233559	completed	0
-3.6012163	2010	0
-3.6396925	honestly	0
-3.6114945	fan	0
-3.6341784	library	0
-3.5353677	definitely	-0.15866984
-3.5623758	cannot	0
-3.5999484	ride	0
-3.5789428	ass	-0.262716
-3.6754887	-4.911577	0
-3.513039	watching	-0.22344191
-3.509941	miss	-0.1745911
-3.5635386	There's	0
-3.6076117	Red	0
-3.6595626	bunch	0
-3.5924182	you've	0
-3.6101964	to.	-0.26486638
-3.5486617	cause	0
-3.5825765	Life	0
-3.5464177	words	-0.2085708
-3.581362	Hey	0
-3.5999484	we've	0
-3.5999484	rock	0
-3.6141024	days.	-0.21317348
-3.5321066	won't	0
-3.5986843	thoughts	0
-3.6287334	caused	0
-3.6167262	worst	0
-3.5825765	here,	0
-3.4613166	public	-0.11929845
-3.6220217	days,	0
-3.6141024	forced	0
-3.5600598	yes	0
-3.6341784	mile	0
-3.6076117	Most	0
-3.606325	drinking	0
-3.515117	excited	-0.30026963
-3.6260362	concerned	0
-3.581362	eating	-0.28676718
-3.6754887	-5.5088205	0
-3.5612164	girls	-0.22299652
-3.556609	spending	0
-3.5475383	weekend	-0.12406622
-3.5299463	"It	0
-3.6246939	ain't	0
-3.6141024	till	0
-3.5924182	16	0
-3.6114945	daughter	0
-3.6273828	dad	0
-3.6127965	in,	0
-3.4977653	games	-0.2304489
-3.5777383	rather	0
-3.6396925	advertising	0
-3.5693986	expect	-0.14716008
-3.3763545	million	-0.20626187
-3.4859214	gonna	-0.21057762
-3.6167262	content	0
-3.6754887	-5.1004424	0
-3.498767	top	-0.15296213
-3.581362	sweet	-0.24605395
-3.5717652	event	0
-3.6300883	fun.	0
-3.6273828	appears	0
-3.5949137	perhaps	0
-3.5936642	senior	0
-3.5635386	video	-0.1628133
-3.5777383	However,	0
-3.6076117	states	0
-3.5961668	July	0
-3.605042	reach	0
-3.5789428	goal	0
-3.6141024	then,	0
-3.5741446	likely	-0.109600894
-3.5214105	information	-0.13944045
-3.5986843	success	0
-3.5887012	led	0
-3.5531852	government	-0.14842725
-3.606325	George	0
-3.6287334	General	0
-3.544185	miles	-0.26011953
-3.5321066	outside	-0.2449487
-3.5600598	seven	-0.1836868
-3.6341784	shown	0
-3.5386531	Are	-0.39760095
-3.6260362	me?	0
-3.619366	keeps	0
-3.6024878	notice	0
-3.6328106	reminded	0
-3.5705802	return	0
-3.506865	children	-0.13392507
-3.6114945	older	0
-3.6328106	money.	0
-3.5850163	history	0
-3.5924182	focus	0
-3.6287334	handle	0
-3.6396925	mouth	0
-3.5321066	Some	0
-3.5949137	practice	0
-3.5682204	visit	-0.13224867
-3.5936642	extra	-0.23424183
-3.5874696	i'm	0
-3.5600598	paid	0
-3.619366	taxes	0
-3.556609	years.	-0.19275686
-3.6127965	respect	0
-3.5543234	seem	-0.20762998
-3.5936642	choice	0
-3.6246939	guilty	0
-3.608902	Does	0
-3.5850163	sick	0
-3.539754	7	-0.19912533
-3.5974238	general	0
-3.6220217	reality	0
-3.5729532	proud	-0.1850956
-3.606325	paying	0
-3.5949137	leaving	0
-3.605042	date	0
-3.6024878	luck	0
-3.586241	funny	0
-3.575339	Wednesday	0
-3.619366	conference	0
-3.6076117	afternoon	0
-3.5789428	issues	0
-3.6206918	result	0
-3.388631	days	-0.10731465
-3.6206918	Mike	0
-3.6127965	album	0
-3.5623758	passed	0
-3.6328106	before.	0
-3.6300883	truth	0
-3.5999484	hes	0
-3.6154122	closer	0
-3.5789428	THE	-0.3338356
-3.6260362	draw	0
-3.6012163	hang	0
-3.5705802	forget	0
-3.6220217	News	0
-3.5949137	gotten	0
-3.4594805	anyone	-0.09639935
-3.606325	@	0
-3.6076117	America	0
-3.5899367	political	-0.29812002
-3.5986843	pull	0
-3.492791	head	-0.06616859
-3.6233559	lines	0
-3.6260362	park	0
-3.5419638	11	-0.19546038
-3.6012163	safe	0
-3.605042	natural	0
-3.5741446	decision	0
-3.5986843	Would	0
-3.5999484	served	0
-3.5647042	Let	0
-3.6012163	say,	0
-3.6167262	Very	0
-3.6273828	times,	0
-3.608902	off.	0
-3.3393893	I'll	-0.15968595
-3.6754887	-5.514861	0
-3.5899367	listening	-0.29475206
-3.544185	sent	0
-3.6300883	checked	0
-3.2415142	:	-0.04743343
-3.6328106	friends.	0
-3.6273828	cuts	0
-3.5453	12	-0.2284242
-3.6012163	built	0
-3.5874696	Me	0
-3.5837946	future	-0.16752337
-3.5887012	act	0
-3.619366	Here's	0
-3.6180441	Santa	0
-3.6260362	right,	0
-3.6314473	science	0
-3.5974238	study	0
-3.5911756	sound	0
-3.6167262	day!	-0.26964587
-3.6012163	isnt	0
-3.6328106	others.	0
-3.6273828	production	0
-3.5887012	lots	-0.25042462
-3.581362	there,	0
-3.5801506	ones	-0.16118175
-3.5386531	line	-0.14148782
-3.4937813	...	-0.18881106
-3.6260362	wide	0
-3.5375552	shot	-0.18158622
-3.6341784	room.	0
-3.5974238	standing	0
-3.6167262	shoot	0
-3.5777383	picture	0
-3.5214105	meeting	-0.16153073
-3.5999484	yesterday	0
-3.428544	team	-0.14106627
-3.5986843	campaign	0
-3.6012163	details	0
-3.619366	biggest	-0.13575543
-3.5974238	created	0
-3.6246939	cry	0
-3.5235288	what's	-0.114250764
-3.6287334	sing	0
-3.6154122	Look	0
-3.5705802	sit	-0.09853587
-3.5224683	else	-0.07541193
-3.6167262	explain	0
-3.608902	twice	0
-3.6101964	nights	0
-3.6076117	character	0
-3.6233559	fighting	0
-3.5475383	won	0
-3.5850163	50	0
-3.5949137	weather	0
-3.6300883	plenty	-0.21687602
-3.5693986	moment	-0.15685089
-3.6396925	crowd	0
-3.5974238	site	0
-3.5670452	bought	0
-3.606325	shopping	0
-3.5986843	reported	0
-3.514077	per	0
-3.4459515	County	-0.19097364
-3.6300883	Times	0
-3.5887012	further	0
-3.6328106	south	0
-3.6355503	grateful	0
-3.619366	noticed	0
-3.6287334	conversation	0
-3.6260362	normal	0
-3.5974238	account	0
-3.6206918	stick	0
-3.619366	January	0
-3.6260362	months.	-0.25354236
-3.5777383	cost	0
-3.6273828	covered	0
-3.5717652	expected	-0.24436337
-3.605042	damn	0
-3.6206918	slightly	0
-3.544185	lead	-0.10215889
-3.5717652	email	-0.10152839
-3.6246939	shall	0
-3.6024878	air	0
-3.619366	daily	0
-3.6012163	knowing	0
-3.5612164	available	-0.14364082
-3.6260362	Holy	0
-3.619366	place.	0
-3.603763	decide	0
-3.5600598	Thursday	0
-3.5089133	Friday	-0.14417699
-3.581362	totally	-0.2680449
-3.606325	losing	0
-3.52887	nearly	0
-3.6154122	so,	0
-3.5729532	walked	0
-3.5801506	in.	-0.34812322
-3.6260362	accepted	0
-3.6180441	ten	0
-3.6154122	clearly	0
-3.6438744	end,	0
-3.5825765	finding	0
-3.6180441	remains	0
-3.6024878	nine	0
-3.6101964	Robert	0
-3.4957685	full	-0.11931225
-3.6300883	military	0
-3.581362	United	-0.1292175
-3.6341784	States	0
-3.6233559	below	0
-3.4276917	Good	0
-3.4977653	forward	-0.22546647
-3.642476	original	0
-3.6260362	harder	0
-3.5874696	catch	0
-3.6383073	greater	0
-3.6101964	itself	0
-3.6154122	evening	0
-3.6076117	buying	0
-3.5453	learn	-0.09395633
-3.5850163	mother	0
-3.6127965	dress	0
-3.5887012	quickly	0
-3.6246939	bag	0
-3.6314473	hundreds	0
-3.5837946	upon	0
-3.605042	test	0
-3.6341784	purpose	0
-3.5911756	kill	0
-3.6101964	Another	0
-3.5058444	March	0
-3.5936642	coffee	0
-3.606325	fair	0
-3.5245917	isn't	-0.10465182
-3.490817	win	-0.115901306
-3.6154122	too!	-0.15180811
-3.6287334	debt	0
-3.5936642	credit	0
-3.575339	program	0
-3.6260362	Johnson	0
-3.6246939	International	0
-3.5600598	held	0
-3.5924182	calling	0
-3.6246939	ordered	0
-3.586241	text	0
-3.6180441	defense	0
-3.6260362	moments	0
-3.6114945	toward	0
-3.6220217	significant	0
-3.619366	turns	0
-3.5801506	driving	0
-3.606325	weight	0
-3.6273828	approach	0
-3.5453	So,	0
-3.5741446	we'll	0
-3.6383073	celebrate	0
-3.6101964	legal	0
-3.4567409	please	-0.15859976
-3.6233559	carried	0
-3.5961668	"This	0
-3.6154122	winner	0
-3.5911756	Washington	0
-3.5825765	spring	0
-3.5974238	posted	0
-3.539754	8	-0.18602978
-3.5203552	tonight	-0.20357676
-3.6012163	begin	0
-3.6154122	slow	0
-3.543073	Where	0
-3.5682204	answer	0
-3.6233559	cutting	0
-3.5999484	Going	0
-3.6141024	heading	0
-3.6328106	hospital	0
-3.6273828	victory	0
-3.6233559	successful	0
-3.5693986	summer	-0.16849406
-3.6246939	latest	0
-3.608902	teacher	0
-3.5245917	girl	-0.15753667
-3.2920399	"I	-0.089533865
-3.6314473	MY	0
-3.5589066	day,	-0.12944734
-3.5911756	schools	0
-3.5600598	questions	-0.15312761
-3.619366	session	0
-3.6300883	sugar	0
-3.5899367	Time	0
-3.603763	Now,	0
-3.6024878	groups	0
-3.4772458	St.	-0.11999037
-3.6220217	land	0
-3.5520499	House	-0.10370436
-3.603763	boys	0
-3.6341784	click	0
-3.5682204	continue	-0.19405894
-3.6369267	doctor	0
-3.6328106	whom	0
-3.5986843	national	-0.14914392
-3.6341784	includes	0
-3.6287334	Health	0
-3.6466851	suppose	0
-3.6127965	leading	0
-3.6101964	Dont	0
-3.5224683	means	-0.07146058
-3.6101964	performance	0
-3.5924182	starts	0
-3.514077	looks	-0.11366305
-3.6076117	broke	0
-3.5741446	World	0
-3.5647042	child	-0.13557819
-3.6024878	down.	-0.34700578
-3.6383073	murder	0
-3.6127965	mostly	0
-3.641082	owner	0
-3.6206918	regular	0
-3.5999484	whats	0
-3.6180441	imagine	0
-3.586241	she's	0
-3.6024878	block	0
-3.642476	side.	0
-3.6220217	arrived	0
-3.6233559	healthy	0
-3.6328106	bowl	0
-3.586241	showed	0
-3.5109713	following	-0.09968982
-3.6273828	recipe	0
-3.605042	ice	0
-3.6206918	treat	0
-3.6260362	birth	0
-3.354231	that's	-0.10082597
-3.6233559	ends	0
-3.6141024	aware	-0.21583991
-3.5182524	there's	0
-3.6180441	advice	0
-3.6233559	trial	0
-3.6246939	happening	0
-3.606325	middle	-0.083144434
-3.641082	weeks.	0
-3.6220217	growth	0
-3.6314473	rise	0
-3.5961668	shut	0
-3.4967659	Is	-0.22168069
-3.5887012	fuck	0
-3.6180441	box	0
-3.581362	sold	0
-3.6167262	table	0
-3.513039	American	-0.15435368
-3.5623758	June	0
-3.6341784	tend	0
-3.6180441	unless	0
-3.6246939	laugh	0
-3.5999484	career	0
-3.5682204	woman	-0.11320501
-3.5911756	president	0
-3.649514	much!	0
-3.5974238	growing	0
-3.52887	health	-0.13171412
-3.603763	release	0
-3.5837946	By	0
-3.606325	work,	0
-3.605042	Everyone	0
-3.5419638	fall	0
-3.6260362	November	0
-3.6127965	stood	0
-3.5717652	Let's	0
-3.5837946	"You	0
-3.4898336	guys	-0.11999037
-3.6141024	pieces	0
-3.5408576	Can	0
-3.5924182	Make	0
-3.619366	cases	0
-3.6246939	declined	0
-3.6167262	potential	-0.30574766
-3.6127965	selling	0
-3.5353677	tax	-0.13762961
-3.5837946	key	0
-3.6246939	bus	0
-3.6167262	tour	0
-3.5038104	p.m.	-0.13189623
-3.6452775	future.	0
-3.5623758	ago	-0.057647754
-3.6012163	data	0
-3.5999484	Go	0
-3.6328106	respond	0
-3.603763	grow	0
-3.6369267	be.	-0.11139609
-3.5924182	present	0
-3.586241	18	-0.30447516
-3.5741446	missed	0
-3.4640856	.	-0.24689294
-3.653792	know!	0
-3.606325	tells	0
-3.6341784	advantage	0
-3.619366	Lake	0
-3.641082	fun!	0
-3.6180441	prepared	0
-3.6180441	wondering	0
-3.6167262	stage	0
-3.6396925	earn	0
-3.603763	it?	-0.24632563
-3.6101964	thinks	0
-3.6024878	us,	0
-3.6246939	Man	0
-3.6141024	carry	0
-3.6754887	-5.5596747	0
-3.5837946	realize	0
-3.5705802	asking	0
-3.6114945	willing	-0.29865995
-3.5986843	Take	0
-3.6355503	invited	0
-3.5961668	again,	0
-3.6154122	families	0
-3.6101964	fourth	0
-3.619366	season.	-0.16110109
-3.5670452	Christmas	0
-3.6396925	tree	0
-3.6167262	provided	0
-3.6180441	products	0
-3.619366	directly	0
-3.6114945	website	0
-3.6101964	search	0
-3.6180441	Street	0
-3.6127965	items	0
-3.5986843	leaders	0
-3.5299463	haven't	0
-3.6260362	election	0
-3.5986843	oil	0
-3.605042	gas	0
-3.6452775	Barack	0
-3.5554647	Obama	0
-3.6220217	marriage	0
-3.6206918	fact,	0
-3.5554647	Department	-0.22360046
-3.6206918	scheduled	0
-3.575339	jobs	0
-3.605042	absolutely	0
-3.6314473	peace	0
-3.6287334	brain	0
-3.6341784	War	0
-3.5693986	fans	0
-3.5789428	series	0
-3.539754	President	0
-3.544185	Monday	0
-3.6273828	fucking	0
-3.5961668	Keep	0
-3.5850163	Like	0
-3.649514	greatest	0
-3.6024878	offered	0
-3.4242992	state	-0.07084088
-3.608902	property	0
-3.6369267	knowledge	0
-3.6076117	immediately	0
-3.6167262	sharing	0
-3.431111	Thank	-0.3395664
-3.6101964	parts	-0.19235882
-3.6260362	posting	0
-3.506865	six	-0.17516325
-3.6328106	times.	0
-3.606325	wine	0
-3.6369267	Services	0
-3.6101964	executive	0
-3.6341784	chosen	0
-3.6206918	gay	0
-3.6101964	eye	0
-3.6287334	great!	0
-3.5887012	hearing	0
-3.6167262	minute	0
-3.5321066	30	-0.15176713
-3.4762924	wish	-0.0801112
-3.608902	charged	0
-3.5837946	released	0
-3.608902	jump	0
-3.5765371	straight	-0.2268015
-3.6452775	particular	0
-3.5974238	ball	-0.092963815
-3.506865	hate	-0.09738586
-3.619366	stupid	0
-3.6246939	radio	0
-3.642476	discuss	0
-3.5850163	teams	-0.2636555
-3.6260362	grown	0
-3.606325	sell	0
-3.6438744	awesome!	0
-3.6328106	theme	0
-3.641082	up!	0
-3.619366	currently	0
-3.5647042	court	-0.13141073
-3.6206918	battle	0
-3.619366	remain	0
-3.5453	question	-0.11485019
-3.6141024	district	0
-3.6552274	head.	0
-3.6114945	raise	0
-3.6595626	statement.	0
-3.6260362	bottom	0
-3.6114945	smile	0
-3.6328106	honor	0
-3.606325	winning	0
-3.6341784	highest	0
-3.6206918	adding	0
-3.6369267	about.	0
-3.6024878	Louis	0
-3.5741446	report	-0.10499832
-3.6012163	24	0
-3.6341784	department	0
-3.6220217	sale	0
-3.6180441	surprise	0
-3.4631608	Hope	-0.14493833
-3.6024878	tough	0
-3.5999484	helping	0
-3.5999484	spread	0
-3.6141024	Add	0
-3.608902	easier	0
-3.603763	interview	0
-3.6355503	weekend.	0
-3.619366	Central	0
-3.5777383	level	-0.16729511
-3.6180441	California	0
-3.5693986	Big	0
-3.5974238	Two	0
-3.6076117	link	0
-3.3318126	Happy	0
-3.6452775	Year	0
-3.6012163	deep	0
-3.6076117	comments	0
-3.6287334	efforts	0
-3.6328106	enter	0
-3.6328106	children.	0
-3.6396925	majority	0
-3.6167262	teach	0
-3.5961668	showing	0
-3.6287334	Friday,	0
-3.6220217	somewhere	0
-3.6314473	exciting	0
-3.6341784	are,	0
-3.5161595	plan	-0.223925
-3.5693986	First	0
-3.6180441	computer	0
-3.5765371	online	-0.28748736
-3.6167262	throughout	0
-3.6127965	build	0
-3.5911756	lets	0
-3.6396925	professor	0
-3.5837946	ahead	0
-3.6396925	awkward	0
-3.6300883	benefits	0
-3.6127965	insurance	0
-3.5999484	financial	0
-3.6246939	dollars	0
-3.6314473	cash	0
-3.606325	more.	-0.21222405
-3.5936642	medical	0
-3.6101964	current	-0.23774807
-3.5670452	received	0
-3.6341784	approved	0
-3.5986843	ago,	-0.08163171
-3.5874696	Best	0
-3.6287334	afraid	0
-3.6260362	stores	0
-3.5777383	store	-0.16118175
-3.6396925	Association	0
-3.6260362	likes	0
-3.5058444	Love	0
-3.5531852	clear	-0.11674596
-3.6314473	rule	0
-3.619366	brother	0
-3.6114945	Chicago	0
-3.5911756	appreciate	0
-3.6287334	source	0
-3.5543234	is,	-0.17667225
-3.6314473	Easter	0
-3.5717652	Police	0
-3.6154122	Public	0
-3.6220217	fly	0
-3.642476	careful	0
-3.5078878	played	-0.15404408
-3.606325	Portland	0
-3.6328106	European	0
-3.6206918	introduced	0
-3.6127965	match	0
-3.6328106	customer	0
-3.6754887	-5.552983	0
-3.6233559	accept	0
-3.581362	higher	0
-3.5837946	Sometimes	0
-3.6180441	cast	0
-3.6114945	voters	0
-3.6180441	drug	0
-3.619366	official	0
-3.6314473	safety	0
-3.5120041	we're	-0.13070962
-3.5509176	players	-0.2727424
-3.606325	taste	0
-3.6246939	King	0
-3.6206918	school.	0
-3.6383073	organization	0
-3.6076117	blood	0
-3.6260362	you'd	0
-3.539754	sleep	-0.1936358
-3.608902	you?	-0.2053505
-3.2713566	Thanks	-0.5425455
-3.6246939	deserve	0
-3.575339	sorry	0
-3.6355503	thankful	0
-3.5874696	calls	0
-3.619366	security	0
-3.5961668	yes,	0
-3.6328106	fix	0
-3.5936642	happens	0
-3.6552274	other.	0
-3.6438744	everyone!	0
-3.6154122	average	0
-3.6314473	allows	0
-3.6383073	pool	0
-3.6509352	country.	0
-3.5543234	met	-0.13582316
-3.6328106	rules	0
-3.6509352	weekend!	0
-3.6206918	shared	0
-3.6127965	statement	0
-3.6369267	focused	0
-3.6167262	60	0
-3.6246939	published	0
-3.5203552	students	-0.16535929
-3.6341784	prevent	0
-3.5741446	You're	0
-3.6754887	-5.5399003	0
-3.6369267	family.	0
-3.6246939	response	0
-3.5486617	plans	-0.18432197
-3.606325	not.	-0.2790968
-3.6154122	Yes	0
-3.586241	center	0
-3.6246939	baking	0
-3.603763	Los	-0.22327027
-3.6220217	Valley	0
-3.6300883	episode	0
-3.6355503	Club	0
-3.6180441	grew	0
-3.603763	David	0
-3.6127965	Chris	0
-3.5386531	office	-0.17490463
-3.5670452	North	0
-3.6246939	press	0
-3.6369267	Grand	0
-3.6287334	bigger	0
-3.6438744	earth	0
-3.6076117	note	0
-3.6220217	example	0
-3.5999484	He's	0
-3.6101964	heat	0
-3.5837946	art	0
-3.6127965	better.	-0.21317348
-3.6383073	reduce	0
-3.6466851	Chicago,	0
-3.6341784	sites	0
-3.5612164	No.	0
-3.619366	stock	0
-3.6246939	joined	0
-3.5974238	14	0
-3.3878536	thanks	-0.37567365
-3.6220217	Rock	0
-3.6369267	accused	0
-3.6355503	audience	0
-3.6300883	request	0
-3.6141024	folks	0
-3.5949137	missing	0
-3.5936642	consider	0
-3.6114945	r	0
-3.6273828	g	0
-3.5658731	community	-0.15126766
-3.619366	bar	0
-3.6523614	unable	0
-3.5899367	staff	0
-3.6754887	-5.5733767	0
-3.5419638	Saturday	0
-3.6341784	salt	0
-3.5999484	reached	0
-3.6396925	prepare	0
-3.6012163	services	0
-3.6233559	ago.	-0.103590295
-3.5589066	happen	-0.099996
-3.5887012	Check	0
-3.6355503	Service	0
-3.6154122	trade	0
-3.6328106	Church	0
-3.6396925	hours.	0
-3.6287334	concert	0
-3.52887	We're	0
-3.556609	Looking	-0.25184703
-3.6180441	results	0
-3.619366	December	0
-3.6355503	League	0
-3.5911756	agree	-0.13116819
-3.6220217	Board	0
-3.6369267	determined	0
-3.6220217	base	0
-3.6206918	blessed	0
-3.6438744	pair	0
-3.5801506	college	-0.19513689
-3.608902	game.	-0.19834915
-3.5027971	Please	0
-3.6233559	hotel	0
-3.6260362	recommend	0
-3.642476	anniversary	0
-3.5974238	Senate	0
-3.6220217	Democrats	0
-3.6273828	Congress	0
-3.586241	U	0
-3.6141024	difference	0
-3.6355503	leader	0
-3.608902	followers	0
-3.6101964	positive	0
-3.608902	judge	0
-3.6167262	Finally	0
-3.6246939	River	0
-3.6369267	vice	0
-3.6220217	letter	0
-3.6273828	construction	0
-3.6341784	protect	0
-3.6180441	staying	0
-3.5899367	Republican	0
-3.6287334	primary	0
-3.641082	Angeles	0
-3.6076117	bill	0
-3.6314473	north	0
-3.641082	pace	0
-3.6127965	seconds	0
-3.6438744	happen.	0
-3.605042	Any	0
-3.5182524	oh	0
-3.6273828	shout	0
-3.6141024	somebody	0
-3.5874696	budget	-0.22346275
-3.6127965	me!	0
-3.6314473	Jones	0
-3.6273828	club	0
-3.6206918	hasn't	0
-3.6273828	status	0
-3.603763	dropped	0
-3.6076117	Paul	0
-3.6314473	game,	0
-3.5612164	you!	-0.10389165
-3.606325	employees	0
-3.641082	pleasure	0
-3.6355503	prison	0
-3.5949137	welcome	0
-3.5717652	companies	-0.23851024
-3.6180441	down,	0
-3.619366	2009	0
-3.575339	you'll	0
-3.606325	East	0
-3.5887012	student	-0.25142103
-3.641082	show.	0
-3.6300883	remind	0
-3.6260362	spokesman	0
-3.5949137	action	0
-3.6273828	annual	0
-3.6141024	scene	0
-3.6341784	butter	0
-3.6246939	together.	0
-3.6383073	there!	0
-3.619366	sending	0
-3.6300883	great.	0
-3.6273828	says.	0
-3.5658731	What's	0
-3.6273828	flight	0
-3.5520499	shit	-0.19496956
-3.6220217	ME	0
-3.6012163	ok	0
-3.6101964	rights	0
-3.5670452	billion	0
-3.6220217	teachers	0
-3.6355503	candidate	0
-3.6141024	hits	0
-3.608902	1/2	0
-3.6154122	Oregon	0
-3.6180441	speaking	0
-3.6127965	push	0
-3.6509352	dozen	0
-3.5936642	gotta	0
-3.5837946	runs	0
-3.642476	month.	0
-3.6287334	dreams	0
-3.6273828	trouble	0
-3.6396925	4th	0
-3.6341784	agency	0
-3.5520499	wanna	-0.0876336
-3.5999484	Getting	0
-3.5874696	Game	0
-3.6523614	Plain	0
-3.6287334	investigation	0
-3.5961668	Facebook	0
-3.5837946	Twitter	-0.19584975
-3.6273828	Office	0
-3.6260362	threw	0
-3.6246939	attorney	0
-3.5974238	lucky	0
-3.6300883	Community	0
-3.6141024	1st	0
-3.4558313	"We	0
-3.5887012	director	0
-3.6754887	-5.5664716	0
-3.6314473	administration	0
-3.619366	plays	0
-3.6260362	woke	-0.28957027
-3.6154122	Romney	0
-3.641082	time!	0
-3.5899367	See	0
-3.6355503	true.	0
-3.6206918	serving	0
-3.6396925	joining	0
-3.6220217	baseball	0
-3.6260362	voted	0
-3.5635386	a.m.	-0.29757968
-3.6141024	bout	0
-3.6341784	Bank	0
-3.606325	Q:	0
-3.6101964	;)	0
-3.4640856	!	-0.21759433
-3.6383073	league	0
-3.6220217	contract	0
-3.603763	private	0
-3.6396925	that!	0
-3.606325	county	0
-3.6154122	earned	0
-3.603763	events	0
-3.5765371	announced	0
-3.6396925	millions	0
-3.5986843	Jersey	0
-3.5310252	Can't	-0.24153788
-3.5705802	hey	0
-3.5961668	Had	0
-3.6154122	Got	0
-3.6141024	falling	0
-3.5321066	coach	-0.13060896
-3.5924182	"I'm	0
-3.6438744	stopping	0
-3.608902	Nothing	0
-3.6300883	"But	0
-3.6180441	:(	0
-3.6273828	Arizona	0
-3.6024878	Next	0
-3.6260362	Bay	0
-3.6452775	forth	0
-3.6341784	Super	0
-3.6206918	2008	0
-3.608902	District	0
-3.6012163	tickets	0
-3.6154122	17	0
-3.641082	Supreme	0
-3.649514	own.	0
-3.5310252	"It's	0
-3.5986843	vote	0
-3.6369267	Mother's	0
-3.6509352	Associated	0
-3.6024878	Still	0
-3.6180441	today!	0
-3.6154122	Sorry	0
-3.6141024	workers	0
-3.6300883	Party	0
-3.6206918	Democratic	0
-3.6383073	agreement	0
-3.5949137	Cleveland	0
-3.642476	decade	0
-3.6341784	station	0
-3.6180441	bet	0
-3.6206918	quarter	0
-3.6466851	sides	0
-3.653792	Day!	0
-3.6396925	thing,	0
-3.6566677	variety	0
-3.6233559	bank	0
-3.6127965	forgot	0
-3.6220217	presidential	0
-3.6141024	shooting	0
-3.5801506	Ohio	0
-3.6154122	Wish	0
-3.4345577	lol	-0.16246144
-3.6127965	Congrats	0
-3.5543234	haha	0
-3.5850163	?	-0.25615427
-3.2465346	u	-0.14461464
-3.4715567	im	-0.11780664
-3.6273828	2010,	0
-3.6220217	"We're	0
-3.5777383	yeah	0
-3.5999484	13	0
-3.619366	Republicans	0
-3.6127965	"There	0
-3.6273828	score	0
-3.5949137	chief	0
-3.6154122	basketball	0
-3.5850163	Follow	0
-3.6154122	draft	0
-3.6383073	excuse	0
-3.6396925	governor	0
-3.6355503	here!	0
-3.6273828	elected	0
-3.6246939	:D	0
-3.6396925	percentage	0
-3.6180441	Sen.	0
-3.5321066	tweet	-0.15338618
-3.649514	Press	0
-3.5837946	scored	0
-3.6141024	income	0
-3.6260362	Christie	0
-3.6466851	us!	0
-3.6355503	Kansas	0
-3.5911756	Glad	0
-3.6314473	$1	0
-3.603763	w/	0
-3.619366	NFL	0
-3.5693986	twitter	-0.16778857
-3.6300883	(:	0
-3.6127965	tweets	0
-3.2073944	RT	-0.45034868
-3.6206918	yards	0
-3.6180441	Mayor	0
-3.5789428	Gov.	0
-3.641082	inning	0
-3.649514	follow!	0
-3.6233559	tweeting	0
-3.6355503	Missouri	0
-3.6260362	yea	0
-3.5600598	ur	-0.31355152
-3.6154122	DM	0
-3.6396925	#FF	0
-3.619366	":	0
-3.575339	<3	-0.21520892
-3.6581128	RT!	0
-3.544185	-0.055736594	-1.9210647
-3.4801183	-0.027828999	-2.1257114
-3.6167262	-2.1565087	-1.541696

\2-grams:
-0.0001709846	0 </s>	0
-1.371362	the </s>	0
-1.451408	of </s>	0
-1.5388436	and </s>	0
-1.4715922	you </s>	0
-1.5829879	with </s>	0
-1.6870984	I </s>	0
-1.4956537	have </s>	0
-1.595425	in </s>	0
-1.5385511	that </s>	0
-1.5147978	to </s>	0
-1.4526776	get </s>	0
-1.5315262	is </s>	0
-1.3819363	a </s>	0
-1.3681983	my </s>	0
-1.470922	see </s>	0
-1.4493649	do </s>	0
-1.3362697	be </s>	0
-1.5471965	for </s>	0
-1.4019079	time </s>	0
-1.4279966	about </s>	0
-0.0049479143	-0.055736594 </s>	0
-0.0030820998	-0.027828999 </s>	0
-0.011947587	-2.1565087 </s>	0
-0.80789256	In 0	-1.8750813
-0.8066431	the 0	-3.486566
-0.68755376	years 0	-1.9772768
-0.7481942	most 0	-1.8569831
-0.6501104	of 0	-3.4472175
-0.3924204	and 0	-3.7931972
-0.5532219	were 0	-2.4543982
-0.44927067	after 0	-2.318424
-0.6640829	We 0	-2.160317
-0.79729116	love 0	-1.9557372
-0.8244167	you 0	-2.8263593
-0.5729505	has 0	-2.628148
-0.89891607	been 0	-2.017394
-0.3538455	awesome 0	-1.546613
-0.46952057	with 0	-3.1694124
-0.48778263	kids 0	-1.669185
-0.47885346	down 0	-2.220315
-0.5040028	while 0	-1.9252479
-0.7550001	I 0	-3.2714229
-0.6094653	work 0	-2.0391912
-0.44703698	later 0	-1.616249
-0.70279086	than 0	-2.1318285
-0.6115154	The 0	-2.8414624
-0.8745301	have 0	-2.5513082
-0.36523512	busy 0	-1.4153341
-0.43066788	together 0	-1.7227043
-0.4048	playing 0	-1.7227043
-0.5449121	on 0	-3.1829264
-0.5811603	in 0	-3.4684126
-0.5554294	his 0	-2.5956624
-0.43772107	from 0	-2.9326854
-0.54608667	He 0	-2.2640665
-0.5366156	that 0	-3.2595189
-0.48441672	game 0	-1.8750813
-0.6464751	so 0	-2.6040144
-0.5285254	bad 0	-1.7530869
-0.73024523	used 0	-1.6547072
-0.5035594	card 0	-1.3462532
-0.6792165	he 0	-2.5819557
-0.5371525	money 0	-1.7289532
-0.72754455	to 0	-3.498647
-0.8691053	get 0	-2.1318285
-0.71400195	it 0	-2.8911762
-0.6737016	never 0	-1.9630364
-0.51926243	into 0	-2.401051
-0.71432835	thing 0	-1.8081344
-0.55445826	is 0	-3.25787
-0.7201855	how 0	-2.245583
-0.69958943	we 0	-2.563283
-0.9936549	know 0	-1.8838552
-0.7253969	made 0	-1.9252479
-0.53347117	him 0	-2.2262778
-0.69858605	all 0	-2.5050316
-0.85318863	make 0	-1.94076
-0.87874544	sure 0	-1.5828252
-0.7569822	had 0	-2.3216057
-0.66551626	It 0	-2.278307
-0.650091	was 0	-2.8920293
-0.65378594	very 0	-2.0299833
-0.47720733	watch 0	-1.63973
-0.5210295	when 0	-2.6547072
-0.76321447	also 0	-1.9842257
-0.7353989	does 0	-1.6620064
-0.8086374	a 0	-3.2177052
-0.7108337	good 0	-2.1367083
-0.5700621	job 0	-1.6242179
-0.7765398	feel 0	-1.7351135
-0.668678	like 0	-2.459043
-0.61326003	she 0	-2.3021564
-0.4157942	by 0	-2.883855
-0.5051916	her 0	-2.4704425
-0.65886164	out 0	-2.5784605
-0.593552	She 0	-1.797669
-0.5251742	almost 0	-1.6547072
-0.5054172	as 0	-2.93113
-0.8135952	much 0	-1.909161
-0.37887633	him. 0	-1.5370677
-0.6265655	i 0	-2.218309
-1.0648543	am 0	-1.3609765
-1.005808	going 0	-1.8132741
-0.6449449	share 0	-1.3890052
-0.53624487	some 0	-2.4166095
-0.54992384	home 0	-1.9842257
-0.62023026	my 0	-2.8233745
-0.44463652	these 0	-2.0452232
-0.3941276	amazing 0	-1.5998585
-0.6232139	away 0	-1.7703459
-0.76093304	ready 0	-1.5071045
-0.73138237	come 0	-1.8966924
-0.6109069	life 0	-1.847643
-0.5028628	our 0	-2.3944001
-0.31665218	home. 0	-1.5173236
-0.5265193	season 0	-1.6320432
-0.5681025	right 0	-2.0933702
-0.47438157	around 0	-2.0741868
-0.62124115	up 0	-2.6056657
-0.5946288	fun 0	-1.6472832
-0.670739	set 0	-1.616249
-0.65500754	help 0	-1.7814822
-0.8738091	not 0	-2.3536773
-0.69673777	only 0	-2.0825124
-0.5351363	your 0	-2.6442776
-0.39809048	but 0	-2.9633982
-0.5162691	any 0	-2.1342752
-0.52668977	change 0	-1.6547072
-0.45145884	life. 0	-1.4749198
-0.5155049	cut 0	-1.5370677
-0.54331845	them 0	-2.3038108
-0.62435824	new 0	-2.1367083
-0.51904327	which 0	-2.3038108
-0.4035729	2 0	-1.8411465
-0.6658925	You 0	-2.0879753
-0.84639215	can 0	-2.2302082
-0.8379953	see 0	-1.9483132
-0.61702305	use 0	-1.7869452
-0.5764555	this 0	-2.7907288
-0.7318725	one 0	-2.3624218
-0.44832194	through 0	-2.160317
-0.37904283	using 0	-1.6900351
-0.9154296	need 0	-1.7814822
-0.89174414	do 0	-2.1293678
-0.4029013	- 0	-2.193329
-0.83766997	If 0	-1.8428966
-0.61058724	an 0	-2.572275
-0.64379644	hear 0	-1.5273079
-0.38839984	it! 0	-1.7163641
-0.35558197	:) 0	-2.288689
-0.5462446	friends 0	-1.6900351
-0.6782447	they 0	-2.4891603
-0.50552607	often 0	-1.546613
-0.9974932	same 0	-1.1626089
-0.62160826	keep 0	-1.7589165
-0.56538856	coming 0	-1.7759497
-0.28095314	up. 0	-1.8332452
-0.66680247	there 0	-2.2694614
-0.5411611	ever 0	-1.9050444
-0.482735	again 0	-1.669185
-0.48269546	because 0	-2.3522024
-0.46751222	it. 0	-2.158013
-0.6529122	many 0	-1.9291781
-0.5030332	others 0	-1.5071045
-0.72480536	cant 0	-1.3152189
-0.62951386	two 0	-2.0960426
-0.62659025	nothing 0	-1.6242179
-0.64889777	more 0	-2.4508815
-0.5593147	They 0	-1.8881766
-1.0091119	be 0	-2.2567673
-0.33681524	or 0	-2.83422
-0.8613666	makes 0	-1.4153341
-0.65681225	will 0	-2.6289299
-0.74184835	look 0	-1.8081344
-0.5540687	pretty 0	-1.7646688
-0.5142426	for 0	-3.3382425
-0.8006593	go 0	-1.9910651
-0.88749695	way 0	-1.797669
-0.5506008	buy 0	-1.496639
-0.8147369	could 0	-1.9252479
-0.75199515	far 0	-1.496639
-0.6244058	A 0	-2.017394
-1.3076838	lot 0	-0.48591518
-0.5813122	people 0	-2.3325615
-0.73868567	would 0	-2.3387
-0.56876457	But 0	-2.2282474
-0.52265227	whether 0	-1.5914253
-0.61150974	wrong 0	-1.3752168
-0.543351	here 0	-1.9594021
-0.77299935	got 0	-1.9630364
-0.26587754	serious 0	-1.3890052
-0.76747096	deal 0	-1.1848853
-0.5598899	are 0	-2.8868847
-0.80376345	time 0	-2.1805203
-0.69748414	own 0	-1.3890052
-0.8217324	best 0	-1.6242179
-0.57119036	about 0	-2.6561768
-0.45093137	you. 0	-1.7589165
-0.50859994	time, 0	-1.5650964
-0.5534692	turn 0	-1.5173236
-0.6455546	world. 0	-0.9630364
-0.6997235	To 0	-1.4636388
-0.58866847	those 0	-1.9944448
-0.545454	making 0	-1.7646688
-0.6425039	say 0	-1.9842257
-0.55060077	remember 0	-1.608131
-0.8055635	what 0	-2.3536773
-0.5742269	ask 0	-1.546613
-0.3817325	again. 0	-1.4749198
-0.57388103	months 0	-1.5828252
-0.34994838	too. 0	-1.5273079
-0.54793173	doing 0	-1.913239
-0.69175607	Im 0	-1.7033992
-0.42375025	stuff 0	-1.5071045
-0.68545496	back 0	-2.1805203
-0.47542548	before 0	-2.160317
-0.7628762	such 0	-1.63973
-0.3861334	thing. 0	-1.2640665
-0.7287688	That 0	-1.5914253
-0.71269566	went 0	-1.2440455
-0.37498432	on. 0	-1.4520569
-0.45735508	large 0	-1.4749198
-1.0647194	want 0	-1.63973
-0.31836802	strong 0	-1.4520569
-0.73287165	no 0	-2.1293678
-0.6000755	And 0	-2.1439266
-0.60706425	night 0	-1.7411877
-0.55828357	issue 0	-1.3152189
-0.27706543	including 0	-1.6762469
-0.74452347	should 0	-1.8881766
-0.50809884	at 0	-3.0479105
-0.5542635	times 0	-1.7411877
-0.4719329	State 0	-1.616249
-0.5742567	worth 0	-1.4520569
-0.5240966	over 0	-2.3038108
-0.30964658	100 0	-1.4401577
-0.48715264	support 0	-1.6472832
-0.5741973	being 0	-2.02687
-0.75578094	long 0	-1.7227043
-0.9524984	few 0	-1.4023691
-0.5733384	who 0	-2.583693
-0.7371095	knew 0	-1.4023691
-0.48392448	area 0	-1.4636388
-0.58188033	seen 0	-1.63973
-0.43236732	5 0	-1.7289532
-0.3941276	6 0	-1.5998585
-0.6179286	friend 0	-1.3890052
-0.42464632	-- 0	-2.017394
-0.8887396	end 0	-1.4749198
-0.57382786	read 0	-1.7289532
-0.49329668	anything 0	-1.797669
-0.59701586	favorite 0	-1.4023691
-0.54721934	story 0	-1.5740513
-0.5235351	parents 0	-1.3609765
-0.49232835	small 0	-1.608131
-0.521865	town 0	-1.2640665
-0.64161706	heart 0	-1.3609765
-0.43118352	another 0	-1.9876589
-0.3988385	boy 0	-1.3462532
-0.5803709	car 0	-1.4520569
-0.70775235	just 0	-2.4636388
-0.5168291	hit 0	-1.6831957
-0.6922722	give 0	-1.7289532
-0.57071614	group 0	-1.496639
-0.6481191	next 0	-1.952041
-0.79351294	This 0	-1.8924553
-0.33385766	major 0	-1.4749198
-0.56912684	April 0	-1.4859152
-0.6771764	month 0	-1.3462532
-0.5255962	finally 0	-1.5273079
-0.46405086	finished 0	-1.4636388
-0.6920883	if 0	-2.401051
-0.7197951	still 0	-1.9212817
-0.4904628	business 0	-1.546613
-0.5834961	working 0	-1.7646688
-0.47928452	four 0	-1.7530869
-0.7908616	So 0	-1.7923403
-0.63750386	now 0	-2.048208
-0.717305	looking 0	-1.7759497
-0.42409867	years, 0	-1.546613
-0.9997325	bit 0	-0.92524785
-0.3972793	reading 0	-1.63973
-0.642844	last 0	-2.1761112
-0.77962434	week 0	-1.5273079
-0.71202755	me 0	-2.5173237
-0.5147673	enjoy 0	-1.4520569
-0.45044386	several 0	-1.5914253
-0.6460639	happy 0	-1.6900351
-0.38420478	books 0	-1.496639
-0.7576685	easy 0	-1.2817951
-0.5846807	even 0	-2.1367083
-0.7882074	took 0	-1.5071045
-0.84359914	first 0	-1.8332452
-0.4969762	its 0	-2.347748
-0.37135693	experience 0	-1.5740513
-0.39042234	later, 0	-1.245583
-0.6788917	find 0	-1.7869452
-0.51697326	face 0	-1.5173236
-0.66091657	us 0	-2.0797548
-0.6317982	started 0	-1.546613
-0.6799849	other 0	-1.9944448
-0.86553687	did 0	-1.8233744
-0.70075995	world 0	-1.546613
-0.82867944	When 0	-1.5273079
-0.410776	age 0	-1.4023691
-0.6354324	mom 0	-1.2262778
-0.6776367	day 0	-2.0825124
-0.7155876	My 0	-1.7814822
-0.6727483	phone 0	-1.2988285
-0.5070896	guy 0	-1.5370677
-0.51778924	every 0	-2.01096
-0.43893534	me. 0	-1.8523381
-0.5137984	since 0	-1.94076
-0.5426904	show 0	-1.8794904
-0.5847098	book 0	-1.5914253
-0.6361678	always 0	-1.9291781
-0.60862774	better 0	-1.94076
-0.5430206	10 0	-1.7351135
-0.5053185	minutes 0	-1.608131
-0.47900304	building 0	-1.3752168
-0.5951904	law 0	-1.4153341
-0.6728078	believe 0	-1.6472832
-0.631381	comes 0	-1.5071045
-0.42633888	certain 0	-1.3462532
-0.30502036	white 0	-1.5650964
-0.54166937	man 0	-1.7411877
-0.65531176	goes 0	-1.4520569
-0.6141812	then 0	-2.0422177
-0.35888955	black 0	-1.5370677
-0.2980459	simple 0	-1.3609765
-0.5823636	stay 0	-1.4859152
-0.59373987	all. 0	-1.1391277
-0.6431479	talk 0	-1.6547072
-0.34582072	personal 0	-1.3890052
-0.42953542	true 0	-1.546613
-0.48838368	free 0	-1.7471781
-0.5979265	meet 0	-1.4520569
-0.27850938	people. 0	-1.3890052
-0.5883149	"The 0	-1.4520569
-0.5210458	leave 0	-1.5998585
-0.4893694	song 0	-1.4636388
-0.6120397	weeks 0	-1.4859152
-0.55819964	everyone 0	-1.797669
-0.4684207	where 0	-2.2658722
-0.551118	company 0	-1.4859152
-0.75713384	I've 0	-1.6762469
-0.5643449	blog 0	-1.4153341
-0.6525752	I'm 0	-2.3624218
-0.6548902	little 0	-1.8523381
-0.83696413	New 0	-1.5828252
-0.68932265	It's 0	-1.8569831
-0.6721061	Its 0	-1.4859152
-0.48610952	real 0	-1.669185
-0.42670506	feet 0	-1.4859152
-0.45469812	off 0	-2.2920952
-0.55293745	city 0	-1.5273079
-0.82418513	might 0	-1.5273079
-0.48709893	light 0	-1.4153341
-0.38032153	there. 0	-1.5740513
-0.7203591	must 0	-1.5273079
-0.80768955	may 0	-1.6620064
-0.6402665	point 0	-1.5828252
-0.35693586	simply 0	-1.5071045
-0.55111873	too 0	-2.114304
-0.56510365	it's 0	-2.1934853
-0.45923108	wonderful 0	-1.4023691
-0.82387257	hope 0	-1.555953
-0.5295879	project 0	-1.3152189
-0.7421594	take 0	-1.9252479
-0.8092414	whole 0	-1.1848853
-0.5173312	body 0	-1.3609765
-0.44238508	offer 0	-1.3752168
-0.55985296	members 0	-1.4520569
-0.4759724	their 0	-2.5193388
-0.30088025	truly 0	-1.4153341
-0.4746597	everything 0	-1.7703459
-0.49786845	already 0	-1.7289532
-0.52567613	early 0	-1.7033992
-0.33967218	system 0	-1.4636388
-0.4953565	night. 0	-1.3310132
-0.57388103	heard 0	-1.5828252
-0.56290466	someone 0	-1.847643
-0.672016	nice 0	-1.4859152
-0.76538515	tell 0	-1.6762469
-0.5936003	person 0	-1.608131
-0.42697477	seeing 0	-1.6320432
-0.54166937	call 0	-1.7411877
-0.52698255	stop 0	-1.6967685
-0.41873664	certainly 0	-1.4023691
-0.6656118	mean 0	-1.4636388
-0.6193331	things 0	-2.014189
-0.92277294	think 0	-1.8523381
-0.4203743	that. 0	-1.63973
-0.705478	hard 0	-1.669185
-0.52915275	said 0	-2.4659185
-0.4622296	that, 0	-1.5828252
-0.6771764	mind 0	-1.3462532
-0.64786196	having 0	-1.7351135
-0.43414205	3 0	-1.8283379
-0.35085323	& 0	-2.307101
-0.47677004	play 0	-1.8569831
-0.5370483	both 0	-1.7351135
-0.32536957	without 0	-1.9807651
-0.4611023	gone 0	-1.4636388
-0.41927034	interesting 0	-1.4279232
-0.6133449	well 0	-1.8706269
-0.6028546	problem 0	-1.2988285
-0.34069797	this. 0	-1.3890052
-0.62275654	really 0	-2.151027
-0.6285572	list 0	-1.3609765
-0.5004583	know. 0	-1.1848853
-0.6763713	place 0	-1.7163641
-0.57283235	open 0	-1.6242179
-0.37411392	beer 0	-1.4153341
-0.37381864	class 0	-1.5914253
-0.52218854	late 0	-1.5650964
-0.63846904	bed 0	-1.1848853
-0.4742949	time. 0	-1.7163641
-0.6288455	talking 0	-1.5740513
-0.55284226	each 0	-1.8615788
-0.48093534	hour 0	-1.4153341
-0.67774576	half 0	-1.4636388
-0.53123933	hours 0	-1.63973
-0.69421977	why 0	-1.797669
-0.40090495	now. 0	-1.5828252
-0.8682931	dont 0	-1.496639
-0.50622624	getting 0	-1.9483132
-0.48824707	news 0	-1.546613
-0.58843124	final 0	-1.2817951
-0.39696947	shows 0	-1.5273079
-0.52265227	lost 0	-1.5914253
-0.4915403	you, 0	-1.5998585
-0.58934987	live 0	-1.7163641
-0.5296541	worked 0	-1.4859152
-0.42219162	until 0	-2.0391912
-0.42054564	near 0	-1.496639
-0.43902057	now, 0	-1.4859152
-0.51402867	short 0	-1.496639
-0.3758337	wear 0	-1.4279232
-0.64475554	found 0	-1.7033992
-0.5222512	myself 0	-1.6620064
-0.63625175	enough 0	-1.7646688
-0.5448477	living 0	-1.4859152
-0.48748693	room 0	-1.6967685
-0.6253775	I'd 0	-1.4401577
-0.59013045	big 0	-1.797669
-0.58572924	once 0	-1.5828252
-0.40799716	usually 0	-1.4279232
-0.92055845	don't 0	-1.8132741
-0.3304712	one. 0	-1.5650964
-0.7677928	check 0	-1.3752168
-0.3910919	John 0	-1.5650964
-0.289284	good. 0	-1.5740513
-0.47971562	huge 0	-1.2262778
-0.4979351	actually 0	-1.7471781
-0.6685477	saw 0	-1.4520569
-0.63397956	taken 0	-1.4401577
-0.5339188	done 0	-1.8029332
-0.39145944	cool 0	-1.5998585
-0.47986156	eat 0	-1.4749198
-0.5092527	single 0	-1.3890052
-0.63811415	name 0	-1.4520569
-0.3243792	today. 0	-1.7227043
-0.48079836	drive 0	-1.3890052
-0.4354526	day. 0	-1.6472832
-0.39630976	sad 0	-1.4279232
-0.47320747	saying 0	-1.5370677
-0.39757934	music 0	-1.7033992
-0.516468	probably 0	-1.7163641
-0.5620028	known 0	-1.4153341
-0.32436663	here. 0	-1.555953
-0.8827187	part 0	-1.5370677
-0.76430124	year 0	-1.7589165
-0.5327239	taking 0	-1.6472832
-0.67419773	care 0	-1.555953
-0.6555958	hand 0	-1.2817951
-0.8624109	didn't 0	-1.546613
-0.69849956	let 0	-1.70993
-0.41634706	today 0	-1.94076
-0.47903627	Day 0	-1.5273079
-0.6225161	year. 0	-1.3752168
-0.61624235	write 0	-1.3752168
-0.4104555	called 0	-1.7646688
-0.5476947	perfect 0	-1.3462532
-0.45402348	beautiful 0	-1.5273079
-0.6128902	May 0	-1.5273079
-0.38699377	2012 0	-1.4153341
-0.47965807	1 0	-1.5508404
-0.4705907	said. 0	-2.1415339
-0.42417616	special 0	-1.555953
-0.5678854	maybe 0	-1.4279232
-0.49014264	loved 0	-1.496639
-0.52184445	City 0	-1.546613
-0.35144937	eight 0	-1.4153341
-0.4196003	quite 0	-1.70993
-0.28979868	out. 0	-1.8233744
-0.4931632	recent 0	-1.3462532
-0.4647916	record 0	-1.3310132
-0.6720282	came 0	-1.7163641
-0.59277546	start 0	-1.7703459
-0.6297035	family 0	-1.6242179
-0.2423307	up, 0	-1.608131
-0.33027005	between 0	-1.9910651
-0.48493457	water 0	-1.5370677
-0.38969183	minutes. 0	-1.2988285
-0.60185623	bring 0	-1.4749198
-0.5323332	stand 0	-1.4023691
-0.6277874	high 0	-1.6547072
-0.48260593	points 0	-1.5173236
-0.45016247	it, 0	-1.8283379
-0.6676757	case 0	-1.3890052
-0.41813594	hot 0	-1.5273079
-0.73109275	second 0	-1.496639
-0.67523044	third 0	-1.2817951
-0.488026	understand 0	-1.5650964
-0.81933737	wait 0	-1.4401577
-0.82847655	What 0	-1.6967685
-0.6675488	said, 0	-1.4023691
-0.4026106	paper 0	-1.4023691
-0.31464186	against 0	-2.0361435
-0.5706897	something 0	-2.0685465
-0.4868772	20 0	-1.5740513
-0.5868877	God 0	-1.608131
-0.66738683	happened 0	-1.2988285
-0.39358932	women 0	-1.6242179
-0.45049495	feeling 0	-1.6320432
-0.5615163	three 0	-1.9008884
-0.46143526	different 0	-1.7589165
-0.37437263	writing 0	-1.5740513
-0.5115773	do. 0	-1.2988285
-0.57012814	send 0	-1.3752168
-0.531988	add 0	-1.4636388
-0.55360734	pick 0	-1.4749198
-0.49434975	, 0	-1.5650964
-0.4042769	go. 0	-1.1626089
-0.22304611	lovely 0	-1.3152189
-0.5146762	run 0	-1.7411877
-0.6331414	you're 0	-1.7703459
-0.5421865	during 0	-1.7411877
-0.28262237	crazy 0	-1.496639
-0.6269875	thinking 0	-1.555953
-0.5714309	country 0	-1.3609765
-0.47601128	possible 0	-1.4023691
-1.0459801	least 0	-0.92524785
-0.5524323	former 0	-1.4153341
-0.3606414	work. 0	-1.4859152
-0.33664694	back. 0	-1.4859152
-0.5472026	lose 0	-1.2817951
-0.63884765	important 0	-1.5173236
-0.422643	baby 0	-1.4023691
-0.37619507	tomorrow 0	-1.5650964
-0.67539746	hell 0	-1.0879751
-0.26311663	ya 0	-1.496639
-0.4876598	YOU 0	-1.3609765
-0.2889891	TO 0	-1.4401577
-0.22978449	away. 0	-1.4279232
-0.5379263	movie 0	-1.3890052
-0.36969566	4 0	-1.8332452
-0.69727933	past 0	-1.5071045
-0.46444702	running 0	-1.5828252
-0.5490488	school 0	-1.847643
-0.61584556	put 0	-1.8706269
-0.4399576	well. 0	-1.4520569
-0.739216	doesn't 0	-1.4749198
-0.3074429	out! 0	-1.3152189
-0.35895133	officials 0	-1.555953
-0.44101256	giving 0	-1.5173236
-0.397255	player 0	-1.4401577
-0.6997701	thought 0	-1.6967685
-0.42072123	local 0	-1.5071045
-0.5455133	post 0	-1.5740513
-0.73187476	spend 0	-1.1848853
-0.70905304	told 0	-1.669185
-0.60509545	needed 0	-1.4023691
-0.6981419	great 0	-1.9630364
-0.48397565	break 0	-1.4401577
-0.4215808	food 0	-1.7163641
-0.56620336	knows 0	-1.3609765
-0.5830214	become 0	-1.4636388
-0.65482473	given 0	-1.3462532
-0.47272876	hair 0	-1.3310132
-0.5007006	gets 0	-1.5071045
-0.56490225	house 0	-1.5370677
-0.49159628	exactly 0	-1.4859152
-0.5045984	young 0	-1.5650964
-0.3974533	human 0	-1.3890052
-0.691559	asked 0	-1.4749198
-0.5314263	less 0	-1.6831957
-0.5849389	know, 0	-1.2060745
-0.5105485	word 0	-1.4153341
-0.6209676	spent 0	-1.4636388
-0.37799945	either 0	-1.4749198
-0.41479674	them. 0	-1.6762469
-0.7225439	wasn't 0	-1.2817951
-0.39145944	party 0	-1.5998585
-0.55227643	police 0	-1.5740513
-0.76912594	try 0	-1.5828252
-0.45979106	sitting 0	-1.4401577
-0.7468419	close 0	-1.4023691
-0.5280129	me, 0	-1.608131
-0.59403825	University 0	-1.4279232
-0.44678563	media 0	-1.2640665
-0.48831913	under 0	-1.7471781
-0.64982074	federal 0	-1.245583
-0.6732506	year, 0	-1.3609765
-0.23164403	Park 0	-1.496639
-0.48047954	five 0	-1.7163641
-0.2579695	out, 0	-1.5998585
-0.39971045	15 0	-1.5650964
-0.5556591	percent 0	-1.8569831
-0.7551636	U.S. 0	-1.4279232
-0.5994506	pay 0	-1.5370677
-0.3510951	service 0	-1.496639
-0.50859994	he's 0	-1.5650964
-0.67485964	side 0	-1.4636388
-0.6578243	reason 0	-1.4153341
-0.42230523	way, 0	-1.3752168
-0.42672828	they're 0	-1.496639
-0.4396635	us. 0	-1.3310132
-0.5632206	week. 0	-1.245583
-0.26647756	right. 0	-1.4153341
-0.36695516	behind 0	-1.7289532
-0.6070377	morning 0	-1.4859152
-0.65035695	move 0	-1.4401577
-0.28794265	hurt 0	-1.4749198
-0.7461633	matter 0	-1.2060745
-0.6960598	follow 0	-1.70993
-0.67099357	didnt 0	-1.3890052
-0.53192985	walk 0	-1.4749198
-0.65282804	longer 0	-1.1626089
-0.53896266	says 0	-1.555953
-0.37847462	men 0	-1.5828252
-0.47583935	old 0	-1.7589165
-0.49135846	soon 0	-1.5273079
-0.63321316	felt 0	-1.4520569
-0.5323332	hold 0	-1.4023691
-0.80056584	idea 0	-1.2817951
-0.90588444	can't 0	-1.4749198
-0.44030514	way. 0	-1.4401577
-0.51459795	left 0	-1.8615788
-0.3677009	Center 0	-1.4023691
-0.45850676	definitely 0	-1.5370677
-0.31260797	ass 0	-1.4636388
-0.35825035	watching 0	-1.7163641
-0.62837523	miss 0	-1.496639
-0.31035286	to. 0	-1.3609765
-0.3780863	words 0	-1.555953
-0.37177616	days. 0	-1.3310132
-0.5435508	public 0	-1.6320432
-0.770433	excited 0	-1.4153341
-0.28862116	eating 0	-1.4520569
-0.3588218	girls 0	-1.5173236
-0.5318748	weekend 0	-1.4859152
-0.34943196	games 0	-1.7289532
-0.48093534	expect 0	-1.4153341
-0.38131216	million 0	-1.9842257
-0.5575119	gonna 0	-1.616249
-0.6327791	top 0	-1.5071045
-0.33089116	sweet 0	-1.4636388
-0.4508463	video 0	-1.4279232
-0.49701267	information 0	-1.546613
-0.4783787	government 0	-1.4636388
-0.31536168	miles 0	-1.5740513
-0.33215722	outside 0	-1.6547072
-0.41518128	seven 0	-1.4153341
-0.50905967	children 0	-1.5740513
-0.51281977	visit 0	-1.4023691
-0.34478995	extra 0	-1.3609765
-0.40104127	years. 0	-1.6242179
-0.39154947	7 0	-1.5370677
-0.5749877	days 0	-1.8428966
-0.24844377	THE 0	-1.5071045
-0.6065996	anyone 0	-1.5914253
-0.27817336	political 0	-1.4401577
-0.71411335	head 0	-1.4401577
-0.39696947	11 0	-1.5273079
-0.7085853	I'll 0	-1.6620064
-1.0271513	: 0	-1.3310132
-0.35194722	12 0	-1.5370677
-0.44238508	future 0	-1.3752168
-0.30542144	day! 0	-1.4279232
-0.45383793	ones 0	-1.3752168
-0.4926622	line 0	-1.546613
-0.40709996	... 0	-1.6472832
-0.41856617	shot 0	-1.546613
-0.45319536	meeting 0	-1.5828252
-0.49355268	team 0	-1.7869452
-0.50500745	biggest 0	-1.0879751
-0.5564111	what's 0	-1.3890052
-0.6001642	sit 0	-1.2988285
-0.677496	else 0	-1.3890052
-0.6969629	moment 0	-1.245583
-0.40376207	County 0	-1.797669
-0.3224918	months. 0	-1.2988285
-0.5895344	lead 0	-1.3752168
-0.5913594	email 0	-1.2817951
-0.4881556	available 0	-1.4520569
-0.48704404	Friday 0	-1.555953
-0.3070611	totally 0	-1.4749198
-0.23772767	in. 0	-1.555953
-0.54351634	full 0	-1.5828252
-0.6141171	learn 0	-1.3752168
-0.5824183	isn't 0	-1.3752168
-0.55214727	win 0	-1.608131
-0.47166604	too! 0	-1.2060745
-0.6956068	please 0	-1.4520569
-0.4114558	8 0	-1.5071045
-0.38511604	tonight 0	-1.616249
-0.44067287	summer 0	-1.4279232
-0.46063855	girl 0	-1.5740513
-0.5192097	day, 0	-1.4279232
-0.46908817	questions 0	-1.4401577
-0.58510435	House 0	-1.3310132
-0.47694266	national 0	-1.2060745
-0.6926784	means 0	-1.3462532
-0.5053975	child 0	-1.3752168
-0.23854373	down. 0	-1.4520569
-0.5967406	following 0	-1.4859152
-0.59340465	that's 0	-1.7923403
-0.46671325	American 0	-1.555953
-0.5591428	woman 0	-1.3462532
-0.51402867	health 0	-1.496639
-0.5418287	guys 0	-1.63973
-0.2714401	potential 0	-1.2988285
-0.5009146	tax 0	-1.4401577
-0.5136162	p.m. 0	-1.5914253
-0.75163513	ago 0	-1.2060745
-0.56392485	be. 0	-0.9977985
-0.27254802	18 0	-1.4279232
-0.5240964	. 0	-1.6547072
-0.33058104	it? 0	-1.4279232
-0.45398656	season. 0	-1.2262778
-0.69512135	state 0	-1.5828252
-0.42918783	six 0	-1.6320432
-0.47174656	30 0	-1.5273079
-0.35398218	straight 0	-1.4279232
-0.61722094	ball 0	-1.1391277
-0.60361236	hate 0	-1.4749198
-0.31161994	teams 0	-1.4153341
-0.514717	court 0	-1.3752168
-0.55485594	question 0	-1.4153341
-0.5814416	report 0	-1.2640665
-0.44278932	level 0	-1.4636388
-0.59109795	plan 0	-1.5071045
-0.28794265	online 0	-1.4749198
-0.3730649	more. 0	-1.3752168
-0.34057793	current 0	-1.2640665
-0.65488297	ago, 0	-1.1143041
-0.45383793	store 0	-1.3752168
-0.5499877	clear 0	-1.4153341
-0.42665482	is, 0	-1.4636388
-0.46731108	played 0	-1.5998585
-0.5163137	we're 0	-1.496639
-0.3022846	players 0	-1.608131
-0.39971045	sleep 0	-1.5650964
-0.38259688	you? 0	-1.3752168
-0.5048587	met 0	-1.4153341
-0.44624084	students 0	-1.5828252
-0.29598582	not. 0	-1.4023691
-0.42962438	office 0	-1.5273079
-0.37177616	better. 0	-1.3310132
-0.47272873	community 0	-1.4023691
-0.5854292	ago. 0	-1.1391277
-0.5958382	happen 0	-1.3462532
-0.5152684	agree 0	-1.2988285
-0.3974533	college 0	-1.3890052
-0.39268783	game. 0	-1.3310132
-0.35822365	budget 0	-1.3752168
-0.5845716	you! 0	-1.4153341
-0.33967218	companies 0	-1.4636388
-0.32484007	student 0	-1.3890052
-0.397704	shit 0	-1.5370677
-0.63440794	wanna 0	-1.3152189
-0.3963881	Twitter 0	-1.3752168
-0.5896646	a.m. 0	-1.3310132
-0.3658619	! 0	-1.8706269
-0.51654357	coach 0	-1.4279232
-0.4514888	lol 0	-1.8029332
-0.31963336	? 0	-1.4859152
-0.4861398	u 0	-2.1244044
-0.5472965	im 0	-1.5273079
-0.46858567	tweet 0	-1.5071045
-0.4419162	twitter 0	-1.3890052
-1.0245295	RT 0	-1.5828252
-0.2647761	ur 0	-1.555953
-0.36903572	<3 0	-1.5370677
-0.72027695	In the	0
-0.7651269	of the	-0.19334748
-1.3899896	and the	-0.19937463
-0.99451274	after the	-0.39645863
-1.2702624	love the	0
-1.5725665	has the	0
-1.5915588	been the	0
-0.9123696	with the	-0.29712406
-0.87077713	down the	-0.23035082
-1.2320317	than the	0
-1.4304831	have the	-0.14937872
-0.65107656	on the	-0.21290661
-0.64745075	in the	-0.21883082
-0.73297733	from the	-0.30568546
-1.2183571	that the	-0.3206573
-1.1642164	to the	-0.20794266
-1.2086743	get the	-0.18238764
-0.62525225	into the	-0.26574636
-1.2390643	is the	-0.10019089
-1.4344573	know the	0
-0.89266706	all the	-0.18972683
-1.2141213	make the	-0.18332106
-1.3305215	had the	0
-1.3956095	was the	-0.082537584
-1.3301665	when the	-0.3079285
-1.1839396	like the	-0.32380694
-0.8102522	by the	-0.35275933
-1.2850096	out the	-0.397
-1.2902889	as the	-0.24294935
-0.69661117	around the	0
-1.2654859	up the	-0.36664066
-1.4478813	not the	-0.14082201
-1.5074428	but the	0
-1.13281	see the	-0.2532122
-1.094394	use the	0
-0.6991026	through the	-0.30249316
-1.4009624	do the	0
-1.3856921	be the	-0.08495991
-0.816124	for the	-0.23006245
-1.2250228	got the	0
-1.4696035	are the	-0.18407488
-0.9013959	about the	-0.31953138
-1.4050659	what the	-0.30882093
-0.943898	before the	-0.3525784
-0.6846231	at the	-0.22164239
-0.6904931	over the	-0.16778213
-1.4757949	just the	0
-1.4954289	if the	-0.4430293
-0.7813704	off the	-0.283077
-1.285168	take the	0
-1.5032052	think the	0
-1.1334689	said the	0
-0.582278	On the	0
-0.32193026	across the	0
-0.5591693	At the	0
-0.8560423	between the	0
-0.78645015	against the	0
-0.45805746	during the	0
-0.614313	under the	0
-0.8864093	For the	0
-1.2815355	two years	0
-1.246138	few years	0
-2.5371933	<s> -5.384479	0
-2.2344046	the most	-0.12944545
-1.0956602	years of	0
-0.8500811	most of	0
-1.1694719	all of	-0.14570278
-0.8144463	out of	-0.28363708
-1.2662476	much of	0
-0.98139554	some of	-0.30909884
-1.069586	any of	0
-1.1423107	use of	0
-0.7362984	one of	-0.3765347
-1.0613055	because of	-0.22716424
-0.9834297	many of	0
-1.2696121	two of	0
-1.4941325	more of	0
-0.435908	lack of	0
-1.3385311	way of	0
-0.53352267	lot of	-0.012619906
-1.6002146	time of	0
-1.3920702	best of	0
-1.3297868	those of	0
-1.7877734	back of	0
-0.6052226	end of	-0.1375034
-0.420155	kind of	-0.23927905
-0.7600091	group of	0
-0.92912704	bit of	0
-1.2211092	day of	0
-0.5229516	type of	0
-1.0494217	point of	0
-0.64236313	members of	0
-1.1774081	think of	0
-0.59206843	number of	-0.15219294
-0.7052171	list of	0
-1.0387523	each of	0
-0.7536767	half of	0
-0.627671	front of	0
-0.47845733	part of	-0.22699688
-0.8945075	care of	0
-0.44496998	amount of	-0.3505365
-0.5393627	couple of	0
-0.4242348	sort of	0
-0.8011766	beginning of	0
-0.46245533	rest of	-0.14042524
-0.53626233	sense of	0
-0.5381354	University of	0
-0.60769325	percent of	-0.1929848
-0.5591018	One of	0
-0.6928321	side of	-0.12770832
-0.46025196	piece of	0
-0.63960445	member of	0
-0.94446695	idea of	0
-0.9472939	top of	0
-0.4521345	proud of	0
-0.35318232	lots of	0
-0.39932823	plenty of	0
-0.40089542	aware of	0
-0.74016505	middle of	0
-0.3893807	Department of	0
-0.43913355	parts of	0
-1.7799873	you and	0
-2.04393	on and	0
-2.0302033	in and	0
-1.7276365	it and	0
-1.4675152	out and	-0.23356321
-1.2530265	up and	-0.26792678
-0.8370244	friends and	0
-1.3877227	time and	0
-1.2805418	back and	0
-1.4509915	me and	0
-1.3806264	day and	0
-1.2525576	year and	0
-0.94824755	family and	0
-3.5303023	<s> -4.959633	0
-2.0219295	you were	0
-1.4737241	we were	0
-1.2966292	they were	-0.17447041
-1.4016588	there were	0
-3.1162193	<s> -5.1942024	0
-2.8158262	<s> -5.302602	0
-1.765083	I love	-0.06399666
-2.592765	in love	0
-1.3510376	i love	0
-1.6578313	would love	0
-2.2029352	of you	-0.16310644
-2.2493563	and you	0
-1.2121392	love you	0
-1.9417382	with you	0
-1.9447104	have you	0
-1.7190133	that you	-0.19688204
-2.2803748	to you	-0.19963247
-1.4478732	how you	0
-1.6435376	know you	0
-1.3087646	sure you	0
-1.058172	when you	-0.14306599
-1.6891935	like you	0
-1.819815	as you	0
-1.8438909	but you	0
-1.6643907	can you	0
-1.1911354	see you	0
-1.0388484	do you	-0.062058162
-0.47127295	If you	0
-2.0427732	for you	0
-1.6365398	would you	0
-1.4189564	are you	0
-1.1728942	what you	-0.15083036
-0.4424522	thank you	0
-1.172209	give you	0
-0.7278128	if you	-0.11055191
-1.0941939	did you	0
-0.9460083	When you	0
-1.2174393	where you	0
-0.66433436	Have you	0
-0.8074949	hope you	0
-0.837191	tell you	0
-1.5390049	think you	0
-1.0451926	let you	0
-0.32370028	Did you	0
-0.7126112	glad you	0
-0.33391136	Do you	0
-0.85816777	miss you	0
-0.22098397	Are you	0
-0.26425812	Thank you	-0.17289624
-0.54294574	Hope you	0
-3.5156891	<s> -4.931752	0
-2.160592	that has	0
-1.6071554	he has	0
-1.8853818	it has	0
-1.5605205	who has	0
-0.90970993	has been	-0.11658533
-1.1879234	have been	-0.08876944
-1.3592061	had been	0
-0.68903625	I've been	0
-1.7114451	love with	0
-2.062876	it with	0
-1.7286154	out with	0
-1.3320922	up with	-0.18166436
-1.6652825	do with	0
-0.77666056	wrong with	0
-0.72817224	deal with	0
-1.63575	time with	0
-0.6492727	along with	0
-3.0654628	<s> -5.2089863	0
-2.6377232	a while	0
-1.5129362	and I	-0.15691122
-1.4175129	than I	0
-1.3164482	that I	-0.1608856
-1.1781332	so I	0
-1.0661111	thing I	0
-1.3095295	how I	0
-1.5444578	know I	0
-1.5481093	all I	0
-0.8477204	when I	-0.14476323
-1.5002398	like I	0
-1.4316359	as I	0
-1.2560385	am I	0
-1.0071054	but I	-0.16017486
-1.6692846	can I	0
-1.5746052	do I	0
-1.1215984	If I	0
-0.9275763	because I	0
-1.0228736	it. I	0
-1.4724832	way I	0
-1.0976104	But I	0
-1.3156382	time I	0
-1.072543	what I	-0.1387008
-1.1364318	And I	0
-1.0735277	if I	-0.123236746
-1.1252261	So I	0
-1.3347266	now I	0
-1.4060138	did I	0
-0.68430305	When I	0
-0.9981807	since I	0
-1.068282	where I	0
-1.319578	things I	0
-1.2497598	think I	0
-0.9671983	why I	0
-1.2208642	thought I	0
-1.1425067	: I	0
-0.75392056	wish I	0
-2.2771137	to work	-0.18392798
-0.79543656	more than	-0.20810828
-0.9058994	better than	-0.24146555
-0.5385328	less than	0
-3.3406637	<s> -5.5463924	0
-2.4804494	and have	0
-1.2988868	We have	0
-1.5099373	you have	-0.24756432
-1.3955623	I have	-0.27089468
-1.9314917	to have	-0.24620374
-1.2881836	we have	-0.14506409
-1.8349558	not have	0
-1.4296918	they have	0
-1.6328225	will have	0
-1.2632484	could have	0
-1.1542269	would have	0
-1.0889922	should have	0
-1.6137743	who have	0
-1.8756799	just have	0
-1.3738708	still have	0
-1.0227475	might have	0
-1.0121912	may have	0
-1.1517239	dont have	0
-1.1887991	don't have	0
-1.2215348	didn't have	0
-2.1848266	you on	0
-1.7554638	been on	0
-1.4152656	work on	0
-1.9786913	it on	0
-2.1488793	is on	0
-2.0763557	was on	0
-1.7300992	out on	0
-1.3486837	going on	0
-1.491754	up on	-0.2982061
-1.9488358	be on	0
-1.4635032	go on	0
-1.4373993	back on	0
-0.81183034	working on	0
-1.8035142	me on	0
-3.1162193	<s> -5.197119	0
-1.2599206	years in	0
-2.1967921	and in	0
-1.9924303	you in	0
-1.6250608	been in	0
-1.323097	work in	0
-2.2162304	on in	0
-2.0357392	that in	0
-1.6772639	get in	0
-1.758431	it in	-0.24944064
-1.8996351	is in	0
-1.7964734	was in	0
-1.552257	out in	0
-1.3991932	up in	-0.224762
-1.8071399	not in	0
-1.6832873	one in	0
-1.6660761	be in	-0.110522956
-1.4549778	people in	0
-1.7813535	are in	0
-1.4189332	time in	0
-1.2265376	back in	0
-1.7108282	me in	0
-1.405316	day in	0
-1.3557435	said in	0
-1.0830247	place in	0
-0.9367238	live in	0
-0.5413429	involved in	0
-0.40052697	interested in	0
-2.0605762	of his	-0.26265392
-2.4669244	and his	0
-2.0345325	with his	0
-2.09354	on his	0
-2.163384	in his	-0.18897562
-2.4772403	to his	-0.34946206
-3.536288	<s> -4.9333434	0
-0.5976768	away from	-0.29083335
-2.9706187	<s> -5.2532763	0
-3.3623228	<s> -5.0602007	0
-2.3136551	I wanted	-0.3261097
-2.2516875	of that	-0.40337297
-2.17234	and that	0
-2.199988	you that	0
-2.303331	in that	0
-1.6465161	so that	0
-2.1446304	it that	0
-1.1657281	thing that	0
-1.6786034	is that	-0.20653579
-1.1462243	know that	-0.12681687
-1.6662866	all that	0
-1.2996095	sure that	0
-1.6358091	like that	0
-1.8341011	out that	0
-1.7466974	one that	0
-1.7004056	do that	0
-2.2351649	for that	0
-1.0229244	say that	-0.15856154
-1.6351532	me that	0
-0.86001384	believe that	0
-1.0795069	things that	0
-1.2463536	think that	-0.15650472
-1.3248231	said that	0
-1.1024395	something that	0
-0.5367787	fact that	0
-2.6443484	the game	0
-2.23913	you so	0
-2.0683835	is so	0
-1.992516	was so	0
-1.4522605	am so	0
-1.9682366	are so	0
-1.4474429	I'm so	0
-2.5114274	a bad	0
-2.4706502	I used	0
-2.2537668	be used	0
-2.352494	and he	0
-1.6852273	that he	-0.18606354
-1.323529	when he	0
-1.9386758	as he	0
-1.5361011	what he	0
-1.5345745	if he	0
-1.0833719	said he	0
-2.8812044	the money	0
-2.0465312	and to	0
-0.99975806	love to	0
-1.6302298	you to	-0.16787608
-1.4522214	has to	0
-1.0733768	down to	0
-0.98958844	have to	-0.116216846
-1.8561697	on to	-0.214106
-0.36044425	wanted to	-0.068978846
-0.5188924	used to	-0.10840753
-1.1453602	get to	-0.13127041
-1.5374107	it to	-0.22890994
-1.1357727	thing to	0
-1.6778862	is to	-0.15144366
-0.9772404	how to	-0.10316488
-1.0017647	him to	-0.2744682
-1.0371928	sure to	0
-1.0394124	had to	-0.07045253
-1.7636174	was to	0
-1.2636907	good to	0
-1.1239957	like to	-0.0848602
-1.449178	her to	0
-1.3507092	out to	-0.14099976
-1.3081064	much to	0
-0.41824162	going to	-0.16378716
-1.1315218	home to	0
-0.47739434	ready to	-0.1381171
-0.9032159	come to	0
-1.342588	right to	0
-1.0402273	up to	-0.20914318
-1.3625015	not to	-0.18808174
-1.0146284	them to	-0.266474
-0.45872825	need to	-0.06368284
-1.7700329	do to	0
-0.9941344	coming to	0
-0.97711474	nothing to	0
-1.5610635	more to	0
-0.8776052	go to	-0.14430375
-0.7176979	way to	-0.089391306
-1.3273072	people to	0
-0.9702799	got to	-0.16848987
-0.9077711	time to	-0.13148633
-1.5152081	about to	0
-1.4993787	what to	0
-0.43000787	needs to	0
-0.8379408	back to	-0.26269248
-0.80945927	went to	0
-0.3843881	want to	-0.09419614
-1.4079157	over to	0
-0.2812654	able to	-0.05672594
-1.0916348	next to	0
-1.152032	me to	-0.18882729
-0.48067623	opportunity to	0
-0.78245467	happy to	0
-0.5203807	easy to	0
-1.0749063	us to	-0.21908344
-1.2778867	day to	0
-0.40952992	tried to	0
-0.25065154	trying to	-0.122869655
-0.75902146	talk to	0
-0.4754113	seems to	0
-1.1375234	off to	0
-1.0836684	hope to	0
-0.6972988	nice to	0
-1.1854366	things to	0
-0.67402726	hard to	-0.12055457
-0.8982985	place to	0
-0.5130674	enough to	-0.19515502
-0.3762313	decided to	0
-0.9315991	came to	0
-0.50644815	wait to	-0.10269817
-1.118192	something to	0
-0.6238407	happened to	0
-0.54910594	order to	0
-0.76544064	important to	0
-0.628367	needed to	0
-1.3263792	great to	0
-0.78618383	glad to	0
-0.3325469	listen to	0
-0.46326572	try to	-0.13779257
-0.6231471	close to	0
-0.5190817	chance to	-0.06536446
-0.6342606	starting to	0
-0.14740448	according to	0
-0.37432715	wants to	0
-0.29331043	supposed to	0
-0.5676781	attention to	0
-0.6130768	excited to	0
-0.63258624	likely to	0
-0.411164	seem to	0
-0.30168757	listening to	0
-0.35888407	expected to	0
-0.38443974	forward to	0
-0.43347067	continue to	0
-0.29780287	willing to	0
-0.7208096	plan to	0
-0.95941603	Thanks to	0
-0.45067608	plans to	0
-0.8832084	thanks to	0
-0.5596045	a.m. to	0
-2.4860423	and get	0
-1.9295523	you get	-0.11287296
-2.147141	I get	-0.120293155
-1.6946893	to get	-0.20791718
-1.8374093	we get	0
-1.6304197	can get	0
-1.9075544	will get	0
-2.2737474	of it	0
-2.068353	and it	0
-1.7017872	that it	-0.17617702
-1.5500491	get it	0
-2.0811985	is it	0
-1.442877	how it	0
-1.0299104	made it	0
-0.93183345	make it	-0.1069029
-1.5488709	when it	0
-1.5152588	like it	0
-1.7072284	as it	0
-1.4120129	but it	0
-1.4894323	see it	0
-1.3856814	do it	-0.15697539
-1.274273	because it	0
-0.88843143	makes it	0
-1.5696148	about it	0
-1.3901852	what it	0
-1.4391285	if it	0
-1.3461322	take it	0
-1.3803332	think it	0
-1.5194839	said it	0
-1.1543496	put it	0
-1.0949297	thought it	0
-0.39607245	Is it	0
-2.3940768	I never	0
-2.1935778	have never	0
-1.8584876	will never	0
-3.482502	<s> -4.9804497	0
-1.8527747	one thing	0
-2.290759	and is	0
-1.2691394	He is	0
-1.6739012	that is	-0.15104039
-1.4089272	he is	-0.16868821
-1.2509673	it is	-0.1316515
-0.833297	It is	0
-1.3188545	she is	0
-1.0124034	which is	0
-1.2631187	this is	-0.12602343
-1.8261373	do is	0
-0.9001758	there is	-0.090341315
-1.3781263	what is	0
-1.4215459	who is	0
-0.6202499	This is	0
-0.6704599	There is	0
-1.0991881	What is	0
-2.5999348	of how	0
-2.641661	and how	0
-1.2747784	know how	0
-1.4340314	see how	0
-1.6876801	about how	0
-2.2126663	and we	0
-1.7596086	that we	-0.1673917
-1.8019814	so we	0
-1.4622488	when we	0
-1.893067	as we	0
-1.8718722	but we	0
-1.4325981	what we	0
-1.5032597	if we	0
-1.5717813	think we	0
-1.7156019	you know	0
-1.7941438	I know	-0.08601692
-2.2924592	to know	-0.1314173
-2.1941574	not know	0
-1.2306088	You know	0
-1.8475295	me know	0
-1.5398395	even know	0
-1.564767	us know	0
-0.9813273	dont know	0
-1.0264336	don't know	0
-1.1207367	didn't know	0
-2.4403746	I made	0
-2.1814537	have made	0
-2.3166327	of all	0
-2.5189586	and all	0
-2.027863	you all	0
-2.0689874	with all	0
-2.5080981	in all	0
-2.4409325	to all	0
-1.8628387	it all	0
-1.7918907	we all	0
-2.1207423	for all	0
-1.9970876	are all	0
-2.0875542	at all	0
-1.8713171	to make	-0.35640603
-1.7300745	can make	0
-1.9139869	will make	0
-1.7256485	would make	0
-1.2567632	make sure	0
-1.7704902	not sure	0
-2.2730634	you had	0
-1.7225232	I had	-0.25947848
-2.0196748	have had	0
-1.6050465	he had	0
-1.6504182	we had	0
-1.721796	they had	0
-3.3425887	<s> -5.08661	0
-2.4617233	and was	0
-1.3723489	I was	-0.09771506
-1.2185165	He was	0
-1.8680769	that was	0
-1.1040666	he was	-0.10654469
-1.1821034	it was	-0.17276607
-0.74946624	It was	-0.084424436
-1.1199613	she was	-0.19313158
-1.8248967	this was	0
-1.1696745	there was	0
-1.6332898	what was	0
-1.5106328	who was	0
-2.7871876	the very	0
-2.3885188	is very	0
-2.1960042	a very	-0.16969033
-2.5762782	to watch	-0.24002224
-2.2050047	it when	0
-1.7633159	know when	0
-0.8379807	moment when	0
-3.2968526	<s> -5.1220536	0
-2.3136764	I also	0
-2.283108	is also	0
-1.1395104	In a	0
-1.486666	of a	-0.312389
-1.7516854	and a	-0.13184819
-1.5934883	were a	0
-1.1738057	after a	0
-1.9234378	you a	-0.27339715
-1.2684715	has a	-0.1281889
-1.2934095	been a	-0.0822031
-1.0148307	with a	-0.23338261
-1.2506577	than a	0
-1.037114	have a	-0.08442774
-1.2849793	on a	-0.21257764
-1.2339928	in a	-0.18774036
-1.357516	from a	-0.28633013
-1.9906132	that a	0
-1.6971809	to a	-0.23246877
-1.110624	get a	-0.14344357
-1.8240124	it a	0
-1.0444196	into a	-0.40516979
-1.1586741	is a	-0.10207924
-1.0573839	made a	0
-1.0234406	make a	-0.13770215
-0.95870554	had a	-0.09191758
-1.2662704	was a	-0.07287503
-1.4648782	also a	0
-1.0734593	like a	-0.24832296
-1.3674246	by a	-0.28711832
-1.6969992	out a	0
-0.96418387	as a	-0.2466602
-1.5343835	up a	-0.28465295
-1.49177	not a	-0.18276453
-1.3590827	only a	0
-1.4533558	see a	0
-1.1761799	need a	-0.29661396
-1.5973526	do a	0
-1.2787384	be a	-0.097225994
-1.1372517	for a	-0.21531168
-0.9781749	got a	-0.25547156
-1.686724	are a	0
-1.4218817	about a	-0.26885548
-0.6186428	such a	-0.23264013
-1.3630319	at a	-0.21879305
-1.1766158	being a	0
-1.322133	just a	-0.14456429
-1.3993828	me a	-0.2513156
-0.82805437	took a	0
-1.01759	find a	0
-1.3213998	did a	0
-1.0764426	It's a	0
-1.1738877	it's a	0
-0.45720863	Have a	0
-0.83863795	take a	-0.13389131
-0.72012407	having a	-0.21770164
-2.7256916	the good	0
-1.8072467	a good	-0.113382734
-2.6868935	a job	0
-3.2220669	<s> -5.1473994	0
-2.2702527	you feel	0
-2.0980465	I feel	-0.15224096
-2.1487863	me feel	0
-2.1336458	you like	0
-2.1855514	I like	0
-0.7641336	feel like	-0.10123266
-1.1399411	look like	0
-1.5276835	would like	-0.2978711
-1.8165592	just like	0
-1.5576214	don't like	0
-0.6360707	looks like	0
-2.6407335	and she	0
-2.0594158	that she	0
-1.5787797	said she	0
-2.4388425	of her	-0.365265
-2.6938672	and her	0
-2.1207633	with her	0
-2.669049	to her	0
-1.8009287	get out	0
-2.089787	it out	0
-1.2970685	come out	0
-1.4765153	go out	0
-1.1752903	find out	0
-1.10243	found out	0
-0.7068818	check out	0
-1.1356399	came out	0
-0.48643368	figure out	0
-2.535686	<s> -5.422105	0
-2.0547392	it as	0
-1.4499537	much as	0
-1.1023145	far as	0
-0.86399615	such as	0
-1.1666641	long as	0
-1.7518473	just as	0
-1.0712872	well as	0
-0.80934316	soon as	0
-1.1836889	so much	-0.12006535
-1.2411995	how much	-0.16612785
-1.6679653	as much	-0.22793473
-1.0677108	too much	0
-3.0685313	<s> -5.205989	0
-1.4270616	I am	-0.08765571
-1.9705496	is going	-0.2615376
-2.0941532	was going	-0.22270527
-1.6138004	am going	0
-1.7895004	not going	-0.32846317
-1.9281018	are going	-0.2766818
-1.3994054	I'm going	-0.4671903
-2.6248581	to share	0
-1.9964397	have some	0
-2.2672706	for some	0
-2.065639	are some	0
-3.5243979	<s> -4.908555	0
-3.284865	<s> -5.1027913	0
-1.7810817	of my	-0.15881695
-2.4709525	and my	0
-1.6188766	with my	-0.30219
-1.5687466	on my	-0.22836187
-1.6872636	in my	-0.19991241
-2.2695546	that my	0
-2.1259968	to my	-0.2761495
-1.7514641	get my	0
-2.1650035	is my	0
-1.781512	all my	0
-2.0234818	for my	-0.30777404
-2.0612211	at my	0
-3.4772093	<s> -4.9840183	0
-2.480658	of these	0
-2.2865274	to come	-0.18639423
-1.8884532	my life	0
-2.2521257	of our	-0.31461164
-2.3632464	in our	0
-2.5922868	to our	-0.46321464
-2.8892808	the season	0
-2.44175	the right	-0.08524433
-3.2399716	<s> -5.1422105	0
-2.0428588	it up	0
-1.3657293	come up	0
-0.9096024	set up	0
-0.9615319	end up	0
-1.2157192	give up	0
-0.4436539	ended up	0
-0.5019351	picked up	0
-0.7269389	pick up	0
-0.43923822	wake up	0
-0.31220216	woke up	0
-2.2947907	to help	-0.26981506
-2.4119358	and not	0
-2.1418898	have not	0
-1.623986	is not	-0.103138424
-1.7924888	was not	0
-0.6831095	does not	0
-1.4526917	am not	0
-1.7974935	but not	0
-1.2979525	do not	0
-1.7323804	will not	0
-1.3478681	could not	0
-1.6173782	would not	0
-1.6689856	are not	0
-0.91488427	Im not	0
-0.8115672	did not	-0.093026504
-1.1135099	I'm not	0
-1.0429446	may not	0
-1.2007749	it's not	0
-2.4043841	the only	-0.11786552
-1.7653491	not only	0
-1.8510718	can only	0
-2.259725	of your	-0.30263275
-2.117705	with your	0
-2.0092015	on your	-0.3540315
-2.1697168	in your	-0.2546325
-2.5213852	to your	-0.3832762
-2.15729	for your	0
-3.5015516	<s> -4.947935	0
-2.1257885	have any	0
-3.3523438	<s> -5.0688267	0
-2.698483	to change	0
-2.5381002	<s> -5.427046	0
-2.3223255	of them	-0.18860912
-2.7827046	<s> -5.313942	0
-3.482502	<s> -4.9716544	0
-2.4847457	the new	-0.32368085
-1.9538805	a new	-0.23160878
